{"learner":{"attributes":{"scikit_learn":"{\"_estimator_type\": \"classifier\"}"},"feature_names":[],"feature_types":[],"gradient_booster":{"model":{"cats":{"enc":[],"feature_segments":[],"sorted_idx":[]},"gbtree_model_param":{"num_parallel_tree":"1","num_trees":"180"},"iteration_indptr":[0,1,2,3,4,5,6,7,8,9,10,11,12,13,14,15,16,17,18,19,20,21,22,23,24,25,26,27,28,29,30,31,32,33,34,35,36,37,38,39,40,41,42,43,44,45,46,47,48,49,50,51,52,53,54,55,56,57,58,59,60,61,62,63,64,65,66,67,68,69,70,71,72,73,74,75,76,77,78,79,80,81,82,83,84,85,86,87,88,89,90,91,92,93,94,95,96,97,98,99,100,101,102,103,104,105,106,107,108,109,110,111,112,113,114,115,116,117,118,119,120,121,122,123,124,125,126,127,128,129,130,131,132,133,134,135,136,137,138,139,140,141,142,143,144,145,146,147,148,149,150,151,152,153,154,155,156,157,158,159,160,161,162,163,164,165,166,167,168,169,170,171,172,173,174,175,176,177,178,179,180],"tree_info":[0,0,0,0,0,0,0,0,0,0,0,0,0,0,0,0,0,0,0,0,0,0,0,0,0,0,0,0,0,0,0,0,0,0,0,0,0,0,0,0,0,0,0,0,0,0,0,0,0,0,0,0,0,0,0,0,0,0,0,0,0,0,0,0,0,0,0,0,0,0,0,0,0,0,0,0,0,0,0,0,0,0,0,0,0,0,0,0,0,0,0,0,0,0,0,0,0,0,0,0,0,0,0,0,0,0,0,0,0,0,0,0,0,0,0,0,0,0,0,0,0,0,0,0,0,0,0,0,0,0,0,0,0,0,0,0,0,0,0,0,0,0,0,0,0,0,0,0,0,0,0,0,0,0,0,0,0,0,0,0,0,0,0,0,0,0,0,0,0,0,0,0,0,0,0,0,0,0,0,0],"trees":[{"base_weights":[-1.4429024E-7,-1.7421601E0,8.110723E-1,-2.5630765E0,4.19415E-1,-2.0649704E-1,1.2401506E0,-3.4350743E0,4.183035E-1,4.9008363E-1,-2.5403066E0,1.2882311E0,5.979603E-1,2.7383482E-1,-1.0356408E0,-1.1635266E-2,4.150296E-1,-1.0275054E0,4.033975E-1,2.2473459E-1,3.9878508E-1,2.7881604E-1,-9.0113336E-1],"categories":[],"categories_nodes":[],"categories_segments":[],"categories_sizes":[],"default_left":[0,0,0,0,0,0,0,0,0,0,0,0,0,0,0,0,0,0,0,0,0,0,0],"id":0,"left_children":[1,3,5,7,-1,9,11,13,-1,15,17,19,21,-1,-1,-1,-1,-1,-1,-1,-1,-1,-1],"loss_changes":[3.6016838E3,2.090884E3,7.5963086E2,2.2211152E3,0E0,8.4126056E2,3.7007812E1,4.221338E1,0E0,1.8846164E2,4.13398E2,2.4177734E1,1.0675123E2,0E0,0E0,0E0,0E0,0E0,0E0,0E0,0E0,0E0,0E0],"parents":[2147483647,0,0,1,1,2,2,3,3,5,5,6,6,7,7,9,9,10,10,11,11,12,12],"right_children":[2,4,6,8,-1,10,12,14,-1,16,18,20,22,-1,-1,-1,-1,-1,-1,-1,-1,-1,-1],"split_conditions":[7.5E-1,1E0,1.03E2,1E0,4.19415E-1,8.181818E-1,1E0,1E0,4.183035E-1,1E0,1E0,1.23E2,1E0,2.7383482E-1,-1.0356408E0,-1.1635266E-2,4.150296E-1,-1.0275054E0,4.033975E-1,2.2473459E-1,3.9878508E-1,2.7881604E-1,-9.0113336E-1],"split_indices":[16,14,0,9,0,15,21,19,0,14,9,0,23,0,0,0,0,0,0,0,0,0,0],"split_type":[0,0,0,0,0,0,0,0,0,0,0,0,0,0,0,0,0,0,0,0,0,0,0],"sum_hessian":[2.5469302E3,8.087058E2,1.7382244E3,6.4125275E2,1.6745305E2,5.157143E2,1.22251E3,5.255766E2,1.1567616E2,3.9777805E2,1.17936264E2,1.1364207E3,8.608936E1,1.8491749E0,5.237274E2,2.5046046E2,1.473176E2,9.615709E1,2.1779171E1,8.177462E1,1.054646E3,7.951452E1,6.574844E0],"tree_param":{"num_deleted":"0","num_feature":"31","num_nodes":"23","size_leaf_vector":"1"}},{"base_weights":[6.459463E-2,8.744007E-1,-7.935229E-1,1.05377324E-1,1.1077633E0,-1.4146765E0,3.7958E-1,8.6376226E-1,-2.518481E-1,-6.165995E-1,1.1200452E0,-1.8951756E0,3.7968627E-1,3.168194E-1,1.9683741E-1,-2.4167357E-1,2.8891987E-1,-4.4923422E-1,2.659749E-1,2.7232057E-1,3.5932657E-1,-5.707373E-1,2.6626354E-1],"categories":[],"categories_nodes":[],"categories_segments":[],"categories_sizes":[],"default_left":[0,0,0,0,0,0,0,0,0,0,0,0,0,0,0,0,0,0,0,0,0,0,0],"id":1,"left_children":[1,3,5,7,9,11,-1,13,15,17,19,21,-1,-1,-1,-1,-1,-1,-1,-1,-1,-1,-1],"loss_changes":[1.6597507E3,2.204007E2,1.4848054E3,7.801676E1,2.0653564E1,1.1503583E3,0E0,2.98777E0,1.326268E2,1.1008226E1,1.43602295E1,1.7013184E1,0E0,0E0,0E0,0E0,0E0,0E0,0E0,0E0,0E0,0E0,0E0],"parents":[2147483647,0,0,1,1,2,2,3,3,4,4,5,5,7,7,8,8,9,9,10,10,11,11],"right_children":[2,4,6,8,10,12,-1,14,16,18,20,22,-1,-1,-1,-1,-1,-1,-1,-1,-1,-1,-1],"split_conditions":[8.181818E-1,9E1,1E0,4E0,6.666667E-1,1E0,3.7958E-1,3E0,1E0,1E2,1E0,1.94E2,3.7968627E-1,3.168194E-1,1.9683741E-1,-2.4167357E-1,2.8891987E-1,-4.4923422E-1,2.659749E-1,2.7232057E-1,3.5932657E-1,-5.707373E-1,2.6626354E-1],"split_indices":[15,0,14,1,16,9,0,1,30,0,30,0,0,0,0,0,0,0,0,0,0,0,0],"split_type":[0,0,0,0,0,0,0,0,0,0,0,0,0,0,0,0,0,0,0,0,0,0,0],"sum_hessian":[2.3864456E3,1.2277749E3,1.1586708E3,2.8617273E2,9.416021E2,8.9035596E2,2.6831482E2,9.118025E1,1.9499246E2,6.311228E0,9.352909E2,7.5525397E2,1.3510204E2,4.5216846E1,4.5963406E1,1.3417532E2,6.0817146E1,3.9817708E0,2.329457E0,2.5400645E2,6.812844E2,7.535982E2,1.6557341E0],"tree_param":{"num_deleted":"0","num_feature":"31","num_nodes":"23","size_leaf_vector":"1"}},{"base_weights":[6.979287E-2,-3.9395902E-1,1.1626126E0,6.8905455E-1,-1.2060263E0,1.1543757E-1,3.492439E-1,5.3405426E-2,9.0214056E-1,-1.5637587E0,3.531349E-1,1.1932371E-1,-3.340948E-1,3.7430146E-1,2.3588945E-1,-7.731654E-1,-4.5230117E-1],"categories":[],"categories_nodes":[],"categories_segments":[],"categories_sizes":[],"default_left":[0,0,0,0,0,0,0,0,0,0,0,0,0,0,0,0,0],"id":2,"left_children":[1,3,5,7,9,-1,-1,11,13,15,-1,-1,-1,-1,-1,-1,-1],"loss_changes":[1.0335844E3,1.2601948E3,2.7703857E-1,8.314966E1,6.9980396E2,0E0,0E0,6.2842964E1,1.7430115E1,3.6602417E1,0E0,0E0,0E0,0E0,0E0,0E0,0E0],"parents":[2147483647,0,0,1,1,2,2,3,3,4,4,7,7,8,8,9,9],"right_children":[2,4,6,8,10,-1,-1,12,14,16,-1,-1,-1,-1,-1,-1,-1],"split_conditions":[1E0,7E-1,7.4E1,5.4E1,1E0,1.1543757E-1,3.492439E-1,6E0,9E0,8.181818E-1,3.531349E-1,1.1932371E-1,-3.340948E-1,3.7430146E-1,2.3588945E-1,-7.731654E-1,-4.5230117E-1],"split_indices":[14,15,0,0,9,0,0,1,1,15,0,0,0,0,0,0,0],"split_type":[0,0,0,0,0,0,0,0,0,0,0,0,0,0,0,0,0],"sum_hessian":[2.0375402E3,1.4309415E3,6.065987E2,6.132424E2,8.1769916E2,1.6895518E0,6.049091E2,1.5427647E2,4.5896588E2,7.11274E2,1.06425156E2,1.1963676E2,3.4639713E1,1.1278474E2,3.4618112E2,3.494279E1,6.763312E2],"tree_param":{"num_deleted":"0","num_feature":"31","num_nodes":"17","size_leaf_vector":"1"}},{"base_weights":[6.800153E-2,-3.328819E-1,1.0985273E0,5.734258E-1,-1.0496345E0,9.918432E-2,1.1003734E0,1.6566698E-1,9.201703E-1,-1.3508734E0,3.355913E-1,3.307086E-1,1.192894E-1,1.5791404E-1,-3.370554E-2,3.1845936E-1,2.2024457E-1,3.223979E-1,-4.0823174E-1],"categories":[],"categories_nodes":[],"categories_segments":[],"categories_sizes":[],"default_left":[0,0,0,0,0,0,0,0,0,0,0,0,0,0,0,0,0,0,0],"id":3,"left_children":[1,3,5,7,9,-1,11,13,15,17,-1,-1,-1,-1,-1,-1,-1,-1,-1],"loss_changes":[6.9701666E2,7.897394E2,3.0596924E-1,7.578897E1,4.448133E2,0E0,2.1984863E-1,2.4935713E1,6.8479767E0,1.5781128E1,0E0,0E0,0E0,0E0,0E0,0E0,0E0,0E0,0E0],"parents":[2147483647,0,0,1,1,2,2,3,3,4,4,6,6,7,7,8,8,9,9],"right_children":[2,4,6,8,10,-1,12,14,16,18,-1,-1,-1,-1,-1,-1,-1,-1,-1],"split_conditions":[1E0,7E-1,7.4E1,1.29E2,1E0,9.918432E-2,1E0,5E0,2.9E1,1E0,3.355913E-1,3.307086E-1,1.192894E-1,1.5791404E-1,-3.370554E-2,3.1845936E-1,2.2024457E-1,3.223979E-1,-4.0823174E-1],"split_indices":[14,15,0,0,9,0,22,1,1,19,0,0,0,0,0,0,0,0,0],"split_type":[0,0,0,0,0,0,0,0,0,0,0,0,0,0,0,0,0,0,0],"sum_hessian":[1.6853132E3,1.2138083E3,4.7150494E2,5.361129E2,6.7769543E2,1.5626347E0,4.699423E2,2.470587E2,2.8905417E2,5.9535895E2,8.233649E1,4.6804916E2,1.893148E0,1.0714761E2,1.399111E2,1.6156894E2,1.27485245E2,1.9827052E0,5.933763E2],"tree_param":{"num_deleted":"0","num_feature":"31","num_nodes":"19","size_leaf_vector":"1"}},{"base_weights":[6.381165E-2,-2.9021564E-1,1.0501624E0,4.7282103E-1,-9.619666E-1,8.516097E-2,1.0524589E0,1.2564145E-1,8.3429086E-1,-1.2335902E0,3.2323208E-1,3.1647113E-1,1.028415E-1,2.2890435E-1,5.299781E-3,3.0223486E-1,1.8843763E-1,-3.731394E-1,3.0097842E-1],"categories":[],"categories_nodes":[],"categories_segments":[],"categories_sizes":[],"default_left":[0,0,0,0,0,0,0,0,0,0,0,0,0,0,0,0,0,0,0],"id":4,"left_children":[1,3,5,7,9,-1,11,13,15,17,-1,-1,-1,-1,-1,-1,-1,-1,-1],"loss_changes":[4.8136298E2,5.2047815E2,3.4194946E-1,5.9588882E1,3.003927E2,0E0,2.675171E-1,1.6765446E1,7.68013E0,1.2136719E1,0E0,0E0,0E0,0E0,0E0,0E0,0E0,0E0,0E0],"parents":[2147483647,0,0,1,1,2,2,3,3,4,4,6,6,7,7,8,8,9,9],"right_children":[2,4,6,8,10,-1,12,14,16,18,-1,-1,-1,-1,-1,-1,-1,-1,-1],"split_conditions":[1E0,7E-1,7.4E1,1.32E2,1E0,8.516097E-2,1E0,3E0,2.9E1,1.94E2,3.2323208E-1,3.1647113E-1,1.028415E-1,2.2890435E-1,5.299781E-3,3.0223486E-1,1.8843763E-1,-3.731394E-1,3.0097842E-1],"split_indices":[14,15,0,0,9,0,22,1,1,0,0,0,0,0,0,0,0,0,0],"split_type":[0,0,0,0,0,0,0,0,0,0,0,0,0,0,0,0,0,0,0],"sum_hessian":[1.3766201E3,1.01353973E3,3.6308035E2,4.746662E2,5.3887354E2,1.4571683E0,3.6162317E2,2.4280643E2,2.3185979E2,4.7588647E2,6.2987038E1,3.598968E2,1.7263932E0,3.4295513E1,2.0851093E2,1.2390514E2,1.07954636E2,4.741666E2,1.7198988E0],"tree_param":{"num_deleted":"0","num_feature":"31","num_nodes":"19","size_leaf_vector":"1"}},{"base_weights":[5.867325E-2,-2.5465488E-1,1.0099839E0,3.8419133E-1,-9.0340483E-1,7.306894E-2,1.0128853E0,1.605378E-1,9.0639627E-1,-1.1562119E0,3.1397057E-1,3.0478573E-1,8.847382E-2,2.652201E-1,1.025436E-3,-2.2344114E-2,2.8832996E-1,3.045174E-1,-3.5064813E-1],"categories":[],"categories_nodes":[],"categories_segments":[],"categories_sizes":[],"default_left":[0,0,0,0,0,0,0,0,0,0,0,0,0,0,0,0,0,0,0],"id":5,"left_children":[1,3,5,7,9,-1,11,13,15,17,-1,-1,-1,-1,-1,-1,-1,-1,-1],"loss_changes":[3.359558E2,3.5179947E2,3.7423706E-1,4.98372E1,2.0876593E2,0E0,3.1222534E-1,3.419745E1,6.945801E0,1.1408447E1,0E0,0E0,0E0,0E0,0E0,0E0,0E0,0E0,0E0],"parents":[2147483647,0,0,1,1,2,2,3,3,4,4,6,6,7,7,8,8,9,9],"right_children":[2,4,6,8,10,-1,12,14,16,18,-1,-1,-1,-1,-1,-1,-1,-1,-1],"split_conditions":[1E0,7E-1,7.4E1,1E0,1E0,7.306894E-2,1E0,3E0,3.9E1,1E0,3.1397057E-1,3.0478573E-1,8.847382E-2,2.652201E-1,1.025436E-3,-2.2344114E-2,2.8832996E-1,3.045174E-1,-3.5064813E-1],"split_indices":[14,15,0,30,9,0,22,1,0,19,0,0,0,0,0,0,0,0,0],"split_type":[0,0,0,0,0,0,0,0,0,0,0,0,0,0,0,0,0,0,0],"sum_hessian":[1.1252317E3,8.469941E2,2.782376E2,4.269599E2,4.2003418E2,1.3696876E0,2.7686792E2,2.9984683E2,1.2711305E2,3.7218835E2,4.784581E1,2.7527698E2,1.5909616E0,5.267127E1,2.4717558E2,6.6955404E0,1.2041752E2,1.6909271E0,3.7049744E2],"tree_param":{"num_deleted":"0","num_feature":"31","num_nodes":"19","size_leaf_vector":"1"}},{"base_weights":[5.34039E-2,-2.2147657E-1,9.7314864E-1,3.0754653E-1,-8.609542E-1,8.685078E-1,3.1310952E-1,-1.5287773E-1,5.455737E-1,-1.1008875E0,3.0653185E-1,6.383438E-1,3.096374E-1,8.792934E-2,-1.3675064E-1,3.320462E-1,1.11772105E-1,-3.343963E-1,2.880839E-1,-1.0140233E-2,2.3511864E-1],"categories":[],"categories_nodes":[],"categories_segments":[],"categories_sizes":[],"default_left":[0,0,0,0,0,0,0,0,0,0,0,0,0,0,0,0,0,0,0,0,0],"id":6,"left_children":[1,3,5,7,9,11,-1,13,15,17,-1,19,-1,-1,-1,-1,-1,-1,-1,-1,-1],"loss_changes":[2.3508223E2,2.4250166E2,6.7292786E-1,4.3110023E1,1.4768507E2,2.8100128E0,0E0,1.8316536E1,2.4737839E1,9.249695E0,0E0,4.022667E0,0E0,0E0,0E0,0E0,0E0,0E0,0E0,0E0,0E0],"parents":[2147483647,0,0,1,1,2,2,3,3,4,4,5,5,7,7,8,8,9,9,11,11],"right_children":[2,4,6,8,10,12,-1,14,16,18,-1,20,-1,-1,-1,-1,-1,-1,-1,-1,-1],"split_conditions":[1E0,7E-1,1E0,5.4E1,1E0,7E-1,3.1310952E-1,4E0,9E0,1.94E2,3.0653185E-1,1.39E2,3.096374E-1,8.792934E-2,-1.3675064E-1,3.320462E-1,1.11772105E-1,-3.343963E-1,2.880839E-1,-1.0140233E-2,2.3511864E-1],"split_indices":[14,15,27,0,9,15,0,1,1,0,0,0,0,0,0,0,0,0,0,0,0],"split_type":[0,0,0,0,0,0,0,0,0,0,0,0,0,0,0,0,0,0,0,0,0],"sum_hessian":[9.279883E2,7.1504486E2,2.1294342E2,3.9160193E2,3.2344293E2,9.111309E1,1.2183034E2,1.3357701E2,2.580249E2,2.8725113E2,3.61918E1,3.9894257E1,5.1218834E1,5.40476E1,7.95294E1,5.952289E1,1.9850203E2,2.8580145E2,1.4496922E0,7.2310667E0,3.266319E1],"tree_param":{"num_deleted":"0","num_feature":"31","num_nodes":"21","size_leaf_vector":"1"}},{"base_weights":[4.815826E-2,-1.9178845E-1,9.367362E-1,2.4339338E-1,-8.275569E-1,8.099669E-1,3.0810097E-1,5.1832575E-2,7.961631E-1,-1.0581014E0,3.000585E-1,5.556736E-1,3.0364314E-1,2.200423E-1,-1.6465608E-2,4.115958E-3,2.6040643E-1,2.97554E-1,-3.2283852E-1,7.5970374E-2,2.7310643E-1],"categories":[],"categories_nodes":[],"categories_segments":[],"categories_sizes":[],"default_left":[0,0,0,0,0,0,0,0,0,0,0,0,0,0,0,0,0,0,0,0,0],"id":7,"left_children":[1,3,5,7,9,11,-1,13,15,17,-1,19,-1,-1,-1,-1,-1,-1,-1,-1,-1],"loss_changes":[1.6523106E2,1.6907202E2,1.0535583E0,3.840818E1,1.0566408E2,3.203949E0,0E0,1.9734102E1,5.2384224E0,9.231598E0,0E0,3.487896E0,0E0,0E0,0E0,0E0,0E0,0E0,0E0,0E0,0E0],"parents":[2147483647,0,0,1,1,2,2,3,3,4,4,5,5,7,7,8,8,9,9,11,11],"right_children":[2,4,6,8,10,12,-1,14,16,18,-1,20,-1,-1,-1,-1,-1,-1,-1,-1,-1],"split_conditions":[1E0,7E-1,1E0,1E0,1E0,7E-1,3.0810097E-1,3E0,4.1E1,1E0,3.000585E-1,2.31E2,3.0364314E-1,2.200423E-1,-1.6465608E-2,4.115958E-3,2.6040643E-1,2.97554E-1,-3.2283852E-1,7.5970374E-2,2.7310643E-1],"split_indices":[14,15,27,30,9,15,0,1,0,19,0,0,0,0,0,0,0,0,0,0,0],"split_type":[0,0,0,0,0,0,0,0,0,0,0,0,0,0,0,0,0,0,0,0,0],"sum_hessian":[7.7312103E2,6.093576E2,1.6376341E2,3.6211087E2,2.4724677E2,7.225825E1,9.1505165E1,2.6973035E2,9.238053E1,2.1992722E2,2.7319548E1,3.3664394E1,3.8593853E1,3.571759E1,2.3401276E2,7.870626E0,8.45099E1,1.4462508E0,2.1848096E2,1.9095503E1,1.456889E1],"tree_param":{"num_deleted":"0","num_feature":"31","num_nodes":"21","size_leaf_vector":"1"}},{"base_weights":[4.391381E-2,-1.6199245E-1,8.979782E-1,1.9111195E-1,-7.9935646E-1,7.471893E-1,3.0399603E-1,-4.277733E-2,5.319461E-1,-1.0227625E0,2.9392245E-1,4.7613856E-1,2.982313E-1,4.7462557E-2,-1.5080383E-1,2.3672067E-1,6.051786E-2,-3.1465736E-1,2.119272E-1,6.788856E-2,2.8171295E-1],"categories":[],"categories_nodes":[],"categories_segments":[],"categories_sizes":[],"default_left":[0,0,0,0,0,0,0,0,0,0,0,0,0,0,0,0,0,0,0,0,0],"id":8,"left_children":[1,3,5,7,9,11,-1,13,15,17,-1,19,-1,-1,-1,-1,-1,-1,-1,-1,-1],"loss_changes":[1.1565488E2,1.1945245E2,1.4646835E0,2.7279583E1,7.619016E1,3.4869652E0,0E0,1.8907986E1,1.166169E1,8.346756E0,0E0,3.2718525E0,0E0,0E0,0E0,0E0,0E0,0E0,0E0,0E0,0E0],"parents":[2147483647,0,0,1,1,2,2,3,3,4,4,5,5,7,7,8,8,9,9,11,11],"right_children":[2,4,6,8,10,12,-1,14,16,18,-1,20,-1,-1,-1,-1,-1,-1,-1,-1,-1],"split_conditions":[1E0,7E-1,1E0,1.23E2,1E0,7E-1,3.0399603E-1,8E0,2.9E1,1.87E2,2.9392245E-1,1E0,2.982313E-1,4.7462557E-2,-1.5080383E-1,2.3672067E-1,6.051786E-2,-3.1465736E-1,2.119272E-1,6.788856E-2,2.8171295E-1],"split_indices":[14,15,27,0,9,15,0,1,1,0,0,24,0,0,0,0,0,0,0,0,0],"split_type":[0,0,0,0,0,0,0,0,0,0,0,0,0,0,0,0,0,0,0,0,0],"sum_hessian":[6.558364E2,5.290888E2,1.2674762E2,3.409179E2,1.881709E2,5.8173813E1,6.857381E1,2.0269667E2,1.3822124E2,1.6755562E2,2.061529E1,2.912749E1,2.9046322E1,1.415101E2,6.1186577E1,7.693049E1,6.1290756E1,1.6545221E2,2.1034093E0,1.9884235E1,9.243254E0],"tree_param":{"num_deleted":"0","num_feature":"31","num_nodes":"21","size_leaf_vector":"1"}},{"base_weights":[3.9147872E-2,-1.253539E-1,9.4059163E-1,-7.186093E-1,4.5074087E-2,6.951035E-1,3.0408853E-1,3.0414173E-1,-9.494976E-1,-1.2631053E-1,4.2023945E-1,8.51409E-1,3.314711E-1,-3.0405232E-1,2.2947109E-1,3.4516867E-2,-1.2104157E-1,2.3621888E-1,4.5157396E-3,3.3524156E-2,2.6924637E-1,-4.3016443E-1,2.2834311E-1],"categories":[],"categories_nodes":[],"categories_segments":[],"categories_sizes":[],"default_left":[0,0,0,0,0,0,0,0,0,0,0,0,0,0,0,0,0,0,0,0,0,0,0],"id":9,"left_children":[1,3,5,7,9,11,-1,-1,13,15,17,19,21,-1,-1,-1,-1,-1,-1,-1,-1,-1,-1],"loss_changes":[8.428055E1,4.865005E1,8.6795807E-1,4.3909473E1,2.4131445E1,1.0417004E0,0E0,0E0,1.1228798E1,1.7294176E1,1.7492067E1,4.332056E-1,7.6449733E0,0E0,0E0,0E0,0E0,0E0,0E0,0E0,0E0,0E0,0E0],"parents":[2147483647,0,0,1,1,2,2,3,3,4,4,5,5,8,8,9,9,10,10,11,11,12,12],"right_children":[2,4,6,8,10,12,-1,-1,14,16,18,20,22,-1,-1,-1,-1,-1,-1,-1,-1,-1,-1],"split_conditions":[2E0,7.5E-1,3E0,1E0,1.35E2,3.6E1,3.0408853E-1,3.0414173E-1,1E0,8E0,2.7E1,8.6E1,5.8E1,-3.0405232E-1,2.2947109E-1,3.4516867E-2,-1.2104157E-1,2.3621888E-1,4.5157396E-3,3.3524156E-2,2.6924637E-1,-4.3016443E-1,2.2834311E-1],"split_indices":[30,16,30,19,0,1,0,0,14,1,1,0,1,0,0,0,0,0,0,0,0,0,0],"split_type":[0,0,0,0,0,0,0,0,0,0,0,0,0,0,0,0,0,0,0,0,0,0,0],"sum_hessian":[5.665578E2,4.79852E2,8.670582E1,1.0636873E2,3.7348325E2,2.2292936E1,6.441288E1,1.2110394E1,9.425834E1,2.5682343E2,1.16659836E2,1.4653016E1,7.6399198E0,9.125982E1,2.9985158E0,1.3758875E2,1.1923467E2,6.0707214E1,5.595262E1,1.0601709E0,1.3592845E1,1.038009E0,6.601911E0],"tree_param":{"num_deleted":"0","num_feature":"31","num_nodes":"23","size_leaf_vector":"1"}},{"base_weights":[3.5235602E-2,-9.74381E-2,9.0735483E-1,6.9797345E-2,-5.792521E-1,6.2295115E-1,3.0037478E-1,-3.598715E-1,2.200826E-1,-7.901647E-1,2.8428915E-1,7.984094E-1,2.6195887E-1,-2.265373E-4,-1.9838747E-1,2.672402E-1,9.901523E-3,-3.075E-1,2.0883723E-1,2.8770657E-2,2.55892E-1,-4.2459652E-1,2.1815142E-1],"categories":[],"categories_nodes":[],"categories_segments":[],"categories_sizes":[],"default_left":[0,0,0,0,0,0,0,0,0,0,0,0,0,0,0,0,0,0,0,0,0,0,0],"id":10,"left_children":[1,3,5,7,9,11,-1,13,15,17,-1,19,21,-1,-1,-1,-1,-1,-1,-1,-1,-1,-1],"loss_changes":[5.9304462E1,3.5905178E1,1.1833801E0,2.1472775E1,3.7716763E1,1.022356E0,0E0,9.333732E0,3.084734E1,3.6107784E1,0E0,4.0100193E-1,7.1526127E0,0E0,0E0,0E0,0E0,0E0,0E0,0E0,0E0,0E0,0E0],"parents":[2147483647,0,0,1,1,2,2,3,3,4,4,5,5,7,7,8,8,9,9,11,11,12,12],"right_children":[2,4,6,8,10,12,-1,14,16,18,-1,20,22,-1,-1,-1,-1,-1,-1,-1,-1,-1,-1],"split_conditions":[2E0,8.181818E-1,3E0,4.1E1,1E0,3.6E1,3.0037478E-1,4E0,7E0,9.722222E-1,2.8428915E-1,8.6E1,2.49E2,-2.265373E-4,-1.9838747E-1,2.672402E-1,9.901523E-3,-3.075E-1,2.0883723E-1,2.8770657E-2,2.55892E-1,-4.2459652E-1,2.1815142E-1],"split_indices":[30,15,30,0,9,1,0,1,1,15,0,0,0,0,0,0,0,0,0,0,0,0,0],"split_type":[0,0,0,0,0,0,0,0,0,0,0,0,0,0,0,0,0,0,0,0,0,0,0],"sum_hessian":[5.107746E2,4.4410248E2,6.667212E1,3.303089E2,1.1379357E2,1.8443077E1,4.8229042E1,8.523255E1,2.4507634E2,1.00406624E2,1.3386951E1,1.159546E1,6.8476167E0,3.9351307E1,4.588124E1,5.2628563E1,1.9244778E2,8.697486E1,1.3431761E1,1.0344602E0,1.0561E1,1.0434048E0,5.804212E0],"tree_param":{"num_deleted":"0","num_feature":"31","num_nodes":"23","size_leaf_vector":"1"}},{"base_weights":[3.0518346E-2,-9.512545E-2,7.682166E-1,1.0144572E-1,-7.4034405E-1,5.4692435E-1,2.9535517E-1,-3.5404097E-2,6.37189E-1,-9.559484E-1,2.7691847E-1,2.3343049E-1,2.8371337E-1,9.459205E-3,-3.2214454E-1,1.1718575E-1,2.9260415E-1,-2.9986542E-1,2.0662506E-1,-4.7080293E-2,2.3892237E-1],"categories":[],"categories_nodes":[],"categories_segments":[],"categories_sizes":[],"default_left":[0,0,0,0,0,0,0,0,0,0,0,0,0,0,0,0,0,0,0,0,0],"id":11,"left_children":[1,3,5,7,9,11,-1,13,15,17,-1,19,-1,-1,-1,-1,-1,-1,-1,-1,-1],"loss_changes":[4.3061146E1,5.0451218E1,2.6976204E0,2.240745E1,3.418928E1,4.238353E0,0E0,1.7003317E1,4.803112E0,6.6195602E0,0E0,4.80541E0,0E0,0E0,0E0,0E0,0E0,0E0,0E0,0E0,0E0],"parents":[2147483647,0,0,1,1,2,2,3,3,4,4,5,5,7,7,8,8,9,9,11,11],"right_children":[2,4,6,8,10,12,-1,14,16,18,-1,20,-1,-1,-1,-1,-1,-1,-1,-1,-1],"split_conditions":[1E0,7E-1,7E-1,1E0,1E0,1E0,2.9535517E-1,3.3E1,2E0,1.87E2,2.7691847E-1,2.31E2,2.8371337E-1,9.459205E-3,-3.2214454E-1,1.1718575E-1,2.9260415E-1,-2.9986542E-1,2.0662506E-1,-4.7080293E-2,2.3892237E-1],"split_indices":[14,15,15,30,9,27,0,1,3,0,0,0,0,0,0,0,0,0,0,0,0],"split_type":[0,0,0,0,0,0,0,0,0,0,0,0,0,0,0,0,0,0,0,0,0],"sum_hessian":[4.6279715E2,3.961897E2,6.660745E1,3.0431912E2,9.187057E1,3.4667973E1,3.1939482E1,2.4314444E2,6.1174698E1,8.170551E1,1.0165056E1,2.0297264E1,1.4370711E1,2.2933162E2,1.3812818E1,3.662472E1,2.4549978E1,7.997747E1,1.7280422E0,1.2412064E1,7.8852E0],"tree_param":{"num_deleted":"0","num_feature":"31","num_nodes":"21","size_leaf_vector":"1"}},{"base_weights":[2.817698E-2,-6.1940085E-2,8.328937E-1,-1.16644815E-1,9.466412E-1,4.3756658E-1,9.551477E-1,4.345712E-3,-7.2687036E-1,3.418699E-2,2.9565954E-1,2.5913247E-1,-2.5449578E-2,2.2134827E-2,2.9460394E-1,-1.08957246E-1,3.1243505E-2,-2.9927373E-1,1.8034337E-1,-3.8120276E-1,1.8608429E-1],"categories":[],"categories_nodes":[],"categories_segments":[],"categories_sizes":[],"default_left":[0,0,0,0,0,0,0,0,0,0,0,0,0,0,0,0,0,0,0,0,0],"id":12,"left_children":[1,3,5,7,9,11,13,15,17,-1,-1,-1,19,-1,-1,-1,-1,-1,-1,-1,-1],"loss_changes":[3.0776014E1,2.1183586E1,1.6475449E0,2.6817215E1,5.275917E-1,2.3782287E0,6.80439E-1,1.1191434E1,2.2205698E1,0E0,0E0,0E0,6.1708837E0,0E0,0E0,0E0,0E0,0E0,0E0,0E0,0E0],"parents":[2147483647,0,0,1,1,2,2,3,3,4,4,5,5,6,6,7,7,8,8,12,12],"right_children":[2,4,6,8,10,12,14,16,18,-1,-1,-1,20,-1,-1,-1,-1,-1,-1,-1,-1],"split_conditions":[2E0,1E0,1E0,8.181818E-1,1.1E1,2.7E1,8.2E1,3.6E1,9.722222E-1,3.418699E-2,2.9565954E-1,2.5913247E-1,2.31E2,2.2134827E-2,2.9460394E-1,-1.08957246E-1,3.1243505E-2,-2.9927373E-1,1.8034337E-1,-3.8120276E-1,1.8608429E-1],"split_indices":[30,10,27,15,1,1,0,0,15,0,0,0,0,0,0,0,0,0,0,0,0],"split_type":[0,0,0,0,0,0,0,0,0,0,0,0,0,0,0,0,0,0,0,0,0],"sum_hessian":[4.226758E2,3.80939E2,4.173683E1,3.6217902E2,1.8759985E1,1.0939953E1,3.0796879E1,3.030797E2,5.909929E1,1.012458E0,1.7747526E1,5.2457128E0,5.6942396E0,1.0217894E0,2.977509E1,6.4158905E1,2.389208E2,4.929881E1,9.800479E0,1.6139973E0,4.080242E0],"tree_param":{"num_deleted":"0","num_feature":"31","num_nodes":"21","size_leaf_vector":"1"}},{"base_weights":[2.3649871E-2,-4.7771923E-2,7.8456974E-1,-9.0040274E-2,9.1196555E-1,4.2443147E-1,2.894047E-1,3.6316456E-3,-6.881316E-1,4.6711396E-2,2.8683162E-1,6.8386954E-1,-6.411233E-2,2.67663E-1,-1.0732168E-2,-2.9479852E-1,1.3846317E-1,1.832942E-2,2.2724018E-1,-3.887681E-1,1.6568907E-1],"categories":[],"categories_nodes":[],"categories_segments":[],"categories_sizes":[],"default_left":[0,0,0,0,0,0,0,0,0,0,0,0,0,0,0,0,0,0,0,0,0],"id":13,"left_children":[1,3,5,7,9,11,-1,13,15,-1,-1,17,19,-1,-1,-1,-1,-1,-1,-1,-1],"loss_changes":[2.1621872E1,1.4849417E1,1.8048916E0,1.9587551E1,3.667326E-1,1.7126658E0,0E0,1.0649797E1,1.6484255E1,0E0,0E0,3.518138E-1,4.8774304E0,0E0,0E0,0E0,0E0,0E0,0E0,0E0,0E0],"parents":[2147483647,0,0,1,1,2,2,3,3,4,4,5,5,7,7,8,8,11,11,12,12],"right_children":[2,4,6,8,10,12,-1,14,16,-1,-1,18,20,-1,-1,-1,-1,-1,-1,-1,-1],"split_conditions":[2E0,1E0,3E0,8.181818E-1,7E1,3.6E1,2.894047E-1,2E0,9.722222E-1,4.6711396E-2,2.8683162E-1,9.5E1,2.4E2,2.67663E-1,-1.0732168E-2,-2.9479852E-1,1.3846317E-1,1.832942E-2,2.2724018E-1,-3.887681E-1,1.6568907E-1],"split_indices":[30,10,30,15,0,1,0,1,15,0,0,0,0,0,0,0,0,0,0,0,0],"split_type":[0,0,0,0,0,0,0,0,0,0,0,0,0,0,0,0,0,0,0,0,0],"sum_hessian":[3.9616425E2,3.6302686E2,3.3137367E1,3.48581E2,1.4445874E1,1.216657E1,2.0970797E1,3.0223886E2,4.6342144E1,1.0463283E0,1.3399546E1,7.6854486E0,4.4811206E0,1.1915164E1,2.9032367E2,3.700681E1,9.335336E0,1.005683E0,6.6797657E0,1.1268965E0,3.354224E0],"tree_param":{"num_deleted":"0","num_feature":"31","num_nodes":"21","size_leaf_vector":"1"}},{"base_weights":[2.0775946E-2,-2.6637794E-2,9.112807E-1,-6.531692E-2,8.9667565E-1,1.9432306E-2,2.8674665E-1,-7.388317E-1,-6.3684033E-3,4.0223155E-2,2.8327638E-1,-2.8104627E-1,5.9027806E-2,2.5263026E-1,-1.039989E-2],"categories":[],"categories_nodes":[],"categories_segments":[],"categories_sizes":[],"default_left":[0,0,0,0,0,0,0,0,0,0,0,0,0,0,0],"id":14,"left_children":[1,3,5,7,9,-1,-1,11,13,-1,-1,-1,-1,-1,-1],"loss_changes":[1.594274E1,1.2877003E1,6.5777206E-1,1.3709799E1,3.994894E-1,0E0,0E0,5.3323307E0,7.679672E0,0E0,0E0,0E0,0E0,0E0,0E0],"parents":[2147483647,0,0,1,1,2,2,3,3,4,4,7,7,8,8],"right_children":[2,4,6,8,10,-1,-1,12,14,-1,-1,-1,-1,-1,-1],"split_conditions":[1E0,1E0,8.5E1,7.5E-1,7E1,1.9432306E-2,2.8674665E-1,9.722222E-1,2E0,4.0223155E-2,2.8327638E-1,-2.8104627E-1,5.9027806E-2,2.5263026E-1,-1.039989E-2],"split_indices":[27,10,0,16,0,0,0,15,1,0,0,0,0,0,0],"split_type":[0,0,0,0,0,0,0,0,0,0,0,0,0,0,0],"sum_hessian":[3.7601688E2,3.5792947E2,1.8087393E1,3.4443E2,1.3499485E1,1.0268285E0,1.7060564E1,2.6791452E1,3.1763855E2,1.0169954E0,1.248249E1,2.211102E1,4.6804333E0,9.323685E0,3.0831488E2],"tree_param":{"num_deleted":"0","num_feature":"31","num_nodes":"15","size_leaf_vector":"1"}},{"base_weights":[1.8406749E-2,-4.4244166E-2,5.671451E-1,5.092006E-2,-7.114276E-1,2.3873378E-1,2.8526637E-1,7.741357E-3,8.6756253E-1,2.6395077E-1,-8.6431986E-1,-4.7961686E-2,2.594954E-1,-6.7040935E-2,4.424838E-2,4.5773614E-2,2.7520946E-1,-2.8054032E-1,1.7512372E-1,-3.032251E-1,8.944741E-2],"categories":[],"categories_nodes":[],"categories_segments":[],"categories_sizes":[],"default_left":[0,0,0,0,0,0,0,0,0,0,0,0,0,0,0,0,0,0,0,0,0],"id":15,"left_children":[1,3,5,7,9,11,-1,13,15,-1,17,19,-1,-1,-1,-1,-1,-1,-1,-1,-1],"loss_changes":[1.2551258E1,2.085821E1,4.4874763E0,1.0146571E1,1.0736521E1,3.9004064E0,0E0,8.902455E0,3.745947E-1,0E0,4.4337883E0,5.530212E0,0E0,0E0,0E0,0E0,0E0,0E0,0E0,0E0,0E0],"parents":[2147483647,0,0,1,1,2,2,3,3,4,4,5,5,7,7,8,8,10,10,11,11],"right_children":[2,4,6,8,10,12,-1,14,16,-1,18,20,-1,-1,-1,-1,-1,-1,-1,-1,-1],"split_conditions":[1E0,7E-1,7E-1,2E0,1E0,1E0,2.8526637E-1,4.6E1,2.8E1,2.6395077E-1,1E0,1.39E2,2.594954E-1,-6.7040935E-2,4.424838E-2,4.5773614E-2,2.7520946E-1,-2.8054032E-1,1.7512372E-1,-3.032251E-1,8.944741E-2],"split_indices":[14,15,15,3,19,24,0,0,0,0,9,0,0,0,0,0,0,0,0,0,0],"split_type":[0,0,0,0,0,0,0,0,0,0,0,0,0,0,0,0,0,0,0,0,0],"sum_hessian":[3.6335553E2,3.2694656E2,3.6408985E1,2.8694205E2,4.000452E1,2.0492981E1,1.5916003E1,2.734911E2,1.3450939E1,3.0899966E0,3.6914524E1,1.4690935E1,5.802045E0,1.0280651E2,1.7068459E2,1.1405386E0,1.2310401E1,3.5531166E1,1.383356E0,3.3770063E0,1.1313929E1],"tree_param":{"num_deleted":"0","num_feature":"31","num_nodes":"21","size_leaf_vector":"1"}},{"base_weights":[1.719997E-2,-1.522613E-2,8.594867E-1,2.0327474E-1,-1.1615615E-1,1.8640595E-2,2.7703714E-1,-7.094517E-2,2.6722553E-1,-4.456086E-1,3.1535096E-2,8.6456435E-3,-1.4323522E-1,-4.1747905E-2,-2.506642E-1,1.2112949E-1,-2.9035151E-2],"categories":[],"categories_nodes":[],"categories_segments":[],"categories_sizes":[],"default_left":[0,0,0,0,0,0,0,0,0,0,0,0,0,0,0,0,0],"id":16,"left_children":[1,3,5,7,9,-1,-1,11,-1,13,15,-1,-1,-1,-1,-1,-1],"loss_changes":[9.447832E0,7.3810143E0,5.966902E-1,2.0004204E1,1.1148895E1,0E0,0E0,3.1178734E0,0E0,8.356032E0,7.63082E0,0E0,0E0,0E0,0E0,0E0,0E0],"parents":[2147483647,0,0,1,1,2,2,3,3,4,4,7,7,9,9,10,10],"right_children":[2,4,6,8,10,-1,-1,12,-1,14,16,-1,-1,-1,-1,-1,-1],"split_conditions":[1E0,6E0,8.9E1,4.1E1,8.4E1,1.8640595E-2,2.7703714E-1,5E0,2.6722553E-1,9E0,1.7E1,8.6456435E-3,-1.4323522E-1,-4.1747905E-2,-2.506642E-1,1.2112949E-1,-2.9035151E-2],"split_indices":[27,1,0,0,0,0,0,1,0,1,1,0,0,0,0,0,0],"split_type":[0,0,0,0,0,0,0,0,0,0,0,0,0,0,0,0,0],"sum_hessian":[3.444423E2,3.3261914E2,1.1823149E1,1.04776695E2,2.2784245E2,1.024516E0,1.0798633E1,7.554157E1,2.9235123E1,6.990016E1,1.5794229E2,6.1401592E1,1.4139981E1,3.9900017E1,3.0000143E1,3.9939243E1,1.1800305E2],"tree_param":{"num_deleted":"0","num_feature":"31","num_nodes":"17","size_leaf_vector":"1"}},{"base_weights":[1.6850125E-2,-1.1355984E-2,8.527741E-1,-5.685955E-1,2.1090679E-2,4.085433E-2,2.7394354E-1,-2.6531023E-1,3.175489E-1,-5.607597E-2,2.1493483E-1,-3.8897857E-2,2.168942E-1,-8.293061E-3,-8.001138E-1,2.2789921E-1,-5.180332E-2],"categories":[],"categories_nodes":[],"categories_segments":[],"categories_sizes":[],"default_left":[0,0,0,0,0,0,0,0,0,0,0,0,0,0,0,0,0],"id":17,"left_children":[1,3,5,7,9,-1,-1,-1,11,13,15,-1,-1,-1,-1,-1,-1],"loss_changes":[8.013287E0,5.9669466E0,3.5555077E-1,5.361837E0,4.682012E0,0E0,0E0,0E0,1.0921159E0,1.6562412E1,1.8944347E1,0E0,0E0,0E0,0E0,0E0,0E0],"parents":[2147483647,0,0,1,1,2,2,3,3,4,4,8,8,9,9,10,10],"right_children":[2,4,6,8,10,-1,-1,-1,12,14,16,-1,-1,-1,-1,-1,-1],"split_conditions":[1E0,7.5E-1,7E1,9.722222E-1,1.35E2,4.085433E-2,2.7394354E-1,-2.6531023E-1,1E0,2.3E1,2.7E1,-3.8897857E-2,2.168942E-1,-8.293061E-3,-8.001138E-1,2.2789921E-1,-5.180332E-2],"split_indices":[10,16,0,15,0,0,0,0,30,1,1,0,0,0,0,0,0],"split_type":[0,0,0,0,0,0,0,0,0,0,0,0,0,0,0,0,0],"sum_hessian":[3.384498E2,3.2835666E2,1.0093138E1,1.7158157E1,3.111985E2,1.037223E0,9.055915E0,1.2651782E1,4.506376E0,2.2309729E2,8.810121E1,2.466222E0,2.0401537E0,2.2169373E2,1.4035702E0,3.622822E1,5.1872986E1],"tree_param":{"num_deleted":"0","num_feature":"31","num_nodes":"17","size_leaf_vector":"1"}},{"base_weights":[1.4354456E-2,-2.2622362E-2,5.6846285E-1,1.1508411E-2,-1.2257278E0,8.397075E-1,-3.4364715E-2,-2.8995475E-2,8.244509E-1,-6.370888E-1,-3.53839E-1,1.7315562E-1,2.8515562E-1,-4.2030853E-1,4.123322E-1,6.266909E-3,-2.9377708E-1,2.8084505E-1,5.002687E-2,6.866887E-2,-2.7560964E-1,-1.0364844E-1,1.811705E-1,-4.656734E-2,2.3561397E-1],"categories":[],"categories_nodes":[],"categories_segments":[],"categories_sizes":[],"default_left":[0,0,0,0,0,0,0,0,0,0,0,0,0,0,0,0,0,0,0,0,0,0,0,0,0],"id":18,"left_children":[1,3,5,7,9,11,13,15,17,-1,19,21,-1,-1,23,-1,-1,-1,-1,-1,-1,-1,-1,-1,-1],"loss_changes":[6.812859E0,1.2829129E1,3.4299455E0,1.0049096E1,5.9957457E0,8.978796E-1,5.1046805E0,1.3814082E1,9.079151E-1,0E0,2.0445595E0,9.3990844E-1,0E0,0E0,1.4687687E0,0E0,0E0,0E0,0E0,0E0,0E0,0E0,0E0,0E0,0E0],"parents":[2147483647,0,0,1,1,2,2,3,3,4,4,5,5,6,6,7,7,8,8,10,10,11,11,14,14],"right_children":[2,4,6,8,10,12,14,16,18,-1,20,22,-1,-1,24,-1,-1,-1,-1,-1,-1,-1,-1,-1,-1],"split_conditions":[4.15E2,4.1E1,8.3E1,2.2E2,4.9E1,1E0,5.34E2,2.9E1,3.8E1,-6.370888E-1,6E1,4.67E2,2.8515562E-1,-4.2030853E-1,1E0,6.266909E-3,-2.9377708E-1,2.8084505E-1,5.002687E-2,6.866887E-2,-2.7560964E-1,-1.0364844E-1,1.811705E-1,-4.656734E-2,2.3561397E-1],"split_indices":[0,1,1,0,1,30,0,1,1,0,1,0,0,0,19,0,0,0,0,0,0,0,0,0,0],"split_type":[0,0,0,0,0,0,0,0,0,0,0,0,0,0,0,0,0,0,0,0,0,0,0,0,0],"sum_hessian":[3.3088266E2,3.110826E2,1.9800024E1,3.034641E2,7.618508E0,1.3384616E1,6.415408E0,2.8998053E2,1.3483599E1,3.0459836E0,4.572524E0,2.2732406E0,1.1111376E1,1.0540714E0,5.3613367E0,2.7644614E2,1.3534372E1,1.1164159E1,2.31944E0,2.5434048E0,2.0291193E0,1.1211761E0,1.1520644E0,2.3579068E0,3.00343E0],"tree_param":{"num_deleted":"0","num_feature":"31","num_nodes":"25","size_leaf_vector":"1"}},{"base_weights":[1.4228548E-2,-9.002591E-3,8.077608E-1,-2.8047074E-2,7.773242E-1,1.8819872E-2,2.6742604E-1,1.0753755E-2,-5.2297795E-1,3.3758674E-2,2.5832838E-1,-3.7897374E-3,2.3418553E-1,-2.7407455E-1,9.8071136E-2],"categories":[],"categories_nodes":[],"categories_segments":[],"categories_sizes":[],"default_left":[0,0,0,0,0,0,0,0,0,0,0,0,0,0,0],"id":19,"left_children":[1,3,5,7,9,-1,-1,11,13,-1,-1,-1,-1,-1,-1],"loss_changes":[6.1247377E0,4.8647203E0,5.330634E-1,6.087716E0,3.3092022E-1,0E0,0E0,5.3151593E0,7.948632E0,0E0,0E0,0E0,0E0,0E0,0E0],"parents":[2147483647,0,0,1,1,2,2,3,3,4,4,7,7,8,8],"right_children":[2,4,6,8,10,-1,-1,12,14,-1,-1,-1,-1,-1,-1],"split_conditions":[1E0,1E0,9E1,8.181818E-1,1.2E1,1.8819872E-2,2.6742604E-1,2E0,9.722222E-1,3.3758674E-2,2.5832838E-1,-3.7897374E-3,2.3418553E-1,-2.7407455E-1,9.8071136E-2],"split_indices":[27,10,0,15,1,0,0,3,15,0,0,0,0,0,0],"split_type":[0,0,0,0,0,0,0,0,0,0,0,0,0,0,0],"sum_hessian":[3.308459E2,3.223962E2,8.44969E0,3.1571408E2,6.6821227E0,1.0296861E0,7.420004E0,2.9366968E2,2.2044392E1,1.0100155E0,5.672107E0,2.8596646E2,7.703224E0,1.5051707E1,6.9926844E0],"tree_param":{"num_deleted":"0","num_feature":"31","num_nodes":"15","size_leaf_vector":"1"}},{"base_weights":[1.2379949E-2,-4.1093356E-3,2.5366938E-1,-4.1325787E-1,2.6016466E-2,3.6337394E-1,-1.0936371E0,3.6542585E-1,-5.348942E-2,-6.536854E-2,1.7974956E-1,-1.6325319E-1,-4.5716104E-1,7.219317E-2,2.8764713E-1,-1.9728346E-1,-1.8662518E-3],"categories":[],"categories_nodes":[],"categories_segments":[],"categories_sizes":[],"default_left":[0,0,0,0,0,0,0,0,0,0,0,0,0,0,0,0,0],"id":20,"left_children":[1,3,-1,5,7,9,11,13,15,-1,-1,-1,-1,-1,-1,-1,-1],"loss_changes":[4.462663E0,3.9460452E0,0E0,1.1998513E1,8.069579E0,1.6385942E0,1.9961662E0,3.9709535E0,6.9227314E0,0E0,0E0,0E0,0E0,0E0,0E0,0E0,0E0],"parents":[2147483647,0,0,1,1,3,3,4,4,5,5,6,6,7,7,8,8],"right_children":[2,4,-1,6,8,10,12,14,16,-1,-1,-1,-1,-1,-1,-1,-1],"split_conditions":[3E0,2.4E1,2.5366938E-1,3E0,5E0,1.1E1,4E0,4.9E1,3.6E1,-6.536854E-2,1.7974956E-1,-1.6325319E-1,-4.5716104E-1,7.219317E-2,2.8764713E-1,-1.9728346E-1,-1.8662518E-3],"split_indices":[30,0,0,1,1,0,1,0,0,0,0,0,0,0,0,0,0],"split_type":[0,0,0,0,0,0,0,0,0,0,0,0,0,0,0,0,0],"sum_hessian":[3.2357327E2,3.182696E2,5.3037014E0,2.0955002E1,2.9731458E2,1.0002912E1,1.0952089E1,5.5744778E1,2.415698E2,2.908592E0,7.0943193E0,5.804229E0,5.147861E0,4.7220585E1,8.524192E0,1.6592684E1,2.2497711E2],"tree_param":{"num_deleted":"0","num_feature":"31","num_nodes":"17","size_leaf_vector":"1"}},{"base_weights":[1.0747253E-2,-6.0917507E-3,7.5702524E-1,1.3838606E-1,-9.0046674E-2,4.572578E-2,2.5217086E-1,-2.6478548E-2,2.4531208E-1,-4.3273294E-1,3.0320212E-2,-1.5186443E-2,2.240456E-1,-9.313649E-2,-3.344416E-1,1.7166235E-1,-6.3641923E-3],"categories":[],"categories_nodes":[],"categories_segments":[],"categories_sizes":[],"default_left":[0,0,0,0,0,0,0,0,0,0,0,0,0,0,0,0,0],"id":21,"left_children":[1,3,5,7,9,-1,-1,11,-1,13,15,-1,-1,-1,-1,-1,-1],"loss_changes":[4.022246E0,3.8168597E0,2.2862673E-1,1.2975878E1,8.220593E0,0E0,0E0,1.7936201E0,0E0,3.9731693E0,4.1504545E0,0E0,0E0,0E0,0E0,0E0,0E0],"parents":[2147483647,0,0,1,1,2,2,3,3,4,4,7,7,9,9,10,10],"right_children":[2,4,6,8,10,-1,-1,12,-1,14,16,-1,-1,-1,-1,-1,-1],"split_conditions":[1E0,7E0,1.2E1,4.6E1,8.4E1,4.572578E-2,2.5217086E-1,2E0,2.4531208E-1,7.9E1,1.3E1,-1.5186443E-2,2.240456E-1,-9.313649E-2,-3.344416E-1,1.7166235E-1,-6.3641923E-3],"split_indices":[10,1,1,0,0,0,0,3,0,0,1,0,0,0,0,0,0],"split_type":[0,0,0,0,0,0,0,0,0,0,0,0,0,0,0,0,0],"sum_hessian":[3.187079E2,3.126452E2,6.062684E0,1.1466689E2,1.9797832E2,1.0789294E0,4.9837546E0,9.304645E1,2.1620451E1,5.0788265E1,1.4719005E2,9.113566E1,1.9107865E0,4.4301342E1,6.4869227E0,1.1904932E1,1.3528511E2],"tree_param":{"num_deleted":"0","num_feature":"31","num_nodes":"17","size_leaf_vector":"1"}},{"base_weights":[1.1628311E-2,-1.2948577E-2,4.524953E-1,1.9305222E-2,-6.0926664E-1,7.751337E-1,-1.5550146E-1,-2.4080912E-2,5.420594E-1,-5.6616515E-1,-3.873748E-1,1.6085106E-1,2.7367443E-1,-7.9421264E-1,5.156779E-1,2.578499E-3,-3.80738E-1,1.9166051E-1,-9.984484E-2,7.668322E-2,-1.9287367E-1,1.831301E-1,-1.16580896E-1,-3.719199E-1,3.1560473E-2,2.0447023E-1,1.7446566E-2],"categories":[],"categories_nodes":[],"categories_segments":[],"categories_sizes":[],"default_left":[0,0,0,0,0,0,0,0,0,0,0,0,0,0,0,0,0,0,0,0,0,0,0,0,0,0,0],"id":22,"left_children":[1,3,5,7,9,11,13,15,17,-1,19,21,-1,23,25,-1,-1,-1,-1,-1,-1,-1,-1,-1,-1,-1,-1],"loss_changes":[3.4207563E0,5.7721844E0,3.3905172E0,6.479207E0,3.6355438E0,7.846165E-1,3.2440841E0,1.0759723E1,2.0667138E0,0E0,2.5268993E0,1.0355663E0,0E0,1.6457613E0,2.5108433E-1,0E0,0E0,0E0,0E0,0E0,0E0,0E0,0E0,0E0,0E0,0E0,0E0],"parents":[2147483647,0,0,1,1,2,2,3,3,4,4,5,5,6,6,7,7,8,8,10,10,11,11,13,13,14,14],"right_children":[2,4,6,8,10,12,14,16,18,-1,20,22,-1,24,26,-1,-1,-1,-1,-1,-1,-1,-1,-1,-1,-1,-1],"split_conditions":[4.15E2,3.7E1,8.3E1,1.95E2,2.09E2,1E0,5.87E2,2.9E1,1E0,-5.6616515E-1,4.1E1,7.6E1,2.7367443E-1,1E0,1.21E2,2.578499E-3,-3.80738E-1,1.9166051E-1,-9.984484E-2,7.668322E-2,-1.9287367E-1,1.831301E-1,-1.16580896E-1,-3.719199E-1,3.1560473E-2,2.0447023E-1,1.7446566E-2],"split_indices":[0,1,1,0,0,30,0,1,21,0,1,1,0,19,1,0,0,0,0,0,0,0,0,0,0,0,0],"split_type":[0,0,0,0,0,0,0,0,0,0,0,0,0,0,0,0,0,0,0,0,0,0,0,0,0,0,0],"sum_hessian":[3.1416876E2,2.9849905E2,1.5669713E1,2.841002E2,1.4398855E1,1.0057645E1,5.6120687E0,2.63209E2,2.0891172E1,1.0198832E0,1.3378972E1,2.23186E0,7.8257847E0,2.781661E0,2.8304079E0,2.5744553E2,5.7634964E0,1.9052671E1,1.8385025E0,3.8048606E0,9.574111E0,1.1664486E0,1.0654113E0,1.6071762E0,1.1744848E0,1.7178539E0,1.1125538E0],"tree_param":{"num_deleted":"0","num_feature":"31","num_nodes":"27","size_leaf_vector":"1"}},{"base_weights":[9.990627E-3,-4.1613006E-3,7.039876E-1,3.1697266E-2,-3.2307926E-1,1.4012792E-2,2.4638979E-1,8.898264E-3,7.191558E-1,-6.941594E-1,2.641983E-1,-7.422746E-3,8.815636E-2,2.4027129E-1,3.4539998E-2,2.3255645E-1,-2.5257576E-1],"categories":[],"categories_nodes":[],"categories_segments":[],"categories_sizes":[],"default_left":[0,0,0,0,0,0,0,0,0,0,0,0,0,0,0,0,0],"id":23,"left_children":[1,3,5,7,9,-1,-1,11,13,15,-1,-1,-1,-1,-1,-1,-1],"loss_changes":[3.0879815E0,3.542027E0,4.461193E-1,4.3590727E0,1.4594382E1,0E0,0E0,2.6012795E0,3.486414E-1,5.969039E0,0E0,0E0,0E0,0E0,0E0,0E0,0E0],"parents":[2147483647,0,0,1,1,2,2,3,3,4,4,7,7,8,8,9,9],"right_children":[2,4,6,8,10,-1,-1,12,14,16,-1,-1,-1,-1,-1,-1,-1],"split_conditions":[1E0,7E-1,9.6E1,2E0,1E0,1.4012792E-2,2.4638979E-1,1E0,1E0,1E0,2.641983E-1,-7.422746E-3,8.815636E-2,2.4027129E-1,3.4539998E-2,2.3255645E-1,-2.5257576E-1],"split_indices":[27,15,0,3,14,0,0,19,9,19,0,0,0,0,0,0,0],"split_type":[0,0,0,0,0,0,0,0,0,0,0,0,0,0,0,0,0],"sum_hessian":[3.1311545E2,3.0783215E2,5.2832837E0,2.77528E2,3.0304144E1,1.0119054E0,4.2713785E0,2.695999E2,7.928117E0,2.3487059E1,6.817085E0,2.4194952E2,2.7650385E1,6.6959367E0,1.2321801E0,1.7580856E0,2.1728973E1],"tree_param":{"num_deleted":"0","num_feature":"31","num_nodes":"17","size_leaf_vector":"1"}},{"base_weights":[1.0235432E-2,-3.958718E-1,3.12529E-2,1.5476245E-1,-6.4163643E-1,1.52832195E-2,2.5668168E-1,-3.426814E-1,-2.2197904E-1,2.0281045E-1,-5.6540575E-2,-2.570056E-1,7.828002E-3,1.5555045E-2,2.0224854E-1,-9.847778E-2,8.514349E-3],"categories":[],"categories_nodes":[],"categories_segments":[],"categories_sizes":[],"default_left":[0,0,0,0,0,0,0,0,0,0,0,0,0,0,0,0,0],"id":24,"left_children":[1,3,5,-1,7,9,-1,11,-1,13,15,-1,-1,-1,-1,-1,-1],"loss_changes":[2.616118E0,3.7109408E0,3.8174484E0,0E0,1.0867262E-1,3.869761E0,0E0,9.5357865E-1,0E0,5.6253824E0,4.8068047E0,0E0,0E0,0E0,0E0,0E0,0E0],"parents":[2147483647,0,0,1,1,2,2,4,4,5,5,7,7,9,9,10,10],"right_children":[2,4,6,-1,8,10,-1,12,-1,14,16,-1,-1,-1,-1,-1,-1],"split_conditions":[2.1E1,2E0,1E0,1.5476245E-1,3E0,6E0,2.5668168E-1,1.1E1,-2.2197904E-1,4.1E1,6.7E1,-2.570056E-1,7.828002E-3,1.5555045E-2,2.0224854E-1,-9.847778E-2,8.514349E-3],"split_indices":[0,1,10,0,1,1,0,0,0,0,0,0,0,0,0,0,0],"split_type":[0,0,0,0,0,0,0,0,0,0,0,0,0,0,0,0,0],"sum_hessian":[3.0405453E2,1.4083948E1,2.8997058E2,2.756972E0,1.1326976E1,2.854591E2,4.5114846E0,3.9127762E0,7.4141994E0,7.854903E1,2.0691008E2,1.0818368E0,2.8309395E0,6.033535E1,1.8213676E1,4.8586266E1,1.5832382E2],"tree_param":{"num_deleted":"0","num_feature":"31","num_nodes":"17","size_leaf_vector":"1"}},{"base_weights":[9.240193E-3,-6.9506693E-4,2.2744705E-1,9.5997624E-2,-6.7814626E-2,-2.3535665E-3,2.882856E-1,-3.041207E-1,5.2000977E-2,-2.8580816E-2,4.335495E-2,-1.081775E-1,1.2213437E-1,2.0035231E-1,-1.0497388E-2],"categories":[],"categories_nodes":[],"categories_segments":[],"categories_sizes":[],"default_left":[0,0,0,0,0,0,0,0,0,0,0,0,0,0,0],"id":25,"left_children":[1,3,-1,5,7,9,-1,11,13,-1,-1,-1,-1,-1,-1],"loss_changes":[2.2387562E0,1.9396805E0,0E0,1.0420001E1,5.010498E0,1.5279391E0,0E0,2.5364866E0,6.3402343E0,0E0,0E0,0E0,0E0,0E0,0E0],"parents":[2147483647,0,0,1,1,3,3,4,4,5,5,7,7,8,8],"right_children":[2,4,-1,6,8,10,-1,12,14,-1,-1,-1,-1,-1,-1],"split_conditions":[1E0,8E0,2.2744705E-1,5.8E1,1.03E2,3.6E1,2.882856E-1,1E0,1.7E1,-2.8580816E-2,4.335495E-2,-1.081775E-1,1.2213437E-1,2.0035231E-1,-1.0497388E-2],"split_indices":[24,1,0,0,0,0,0,14,1,0,0,0,0,0,0],"split_type":[0,0,0,0,0,0,0,0,0,0,0,0,0,0,0],"sum_hessian":[2.998097E2,2.9687042E2,2.9392636E0,1.2146182E2,1.754086E2,1.09956314E2,1.1505502E1,5.8497936E1,1.1691066E2,6.7563995E1,4.2392323E1,5.4651684E1,3.846253E0,1.3644045E1,1.0326662E2],"tree_param":{"num_deleted":"0","num_feature":"31","num_nodes":"15","size_leaf_vector":"1"}},{"base_weights":[1.1217393E-2,1.8665695E-3,2.2113827E-1,2.9466921E-2,-3.0889213E-1,1.3735436E-2,6.186334E-1,-6.294435E-1,2.4911395E-1,1.9197896E-2,-4.5063064E-2,3.588589E-2,2.0876649E-1,-2.3400748E-1,2.4997295E-1],"categories":[],"categories_nodes":[],"categories_segments":[],"categories_sizes":[],"default_left":[0,0,0,0,0,0,0,0,0,0,0,0,0,0,0],"id":26,"left_children":[1,3,-1,5,7,9,11,13,-1,-1,-1,-1,-1,-1,-1],"loss_changes":[2.0116105E0,2.5289361E0,0E0,2.5008116E0,9.306252E0,2.1907575E0,1.8732214E-1,4.909478E0,0E0,0E0,0E0,0E0,0E0,0E0,0E0],"parents":[2147483647,0,0,1,1,3,3,4,4,5,5,6,6,7,7],"right_children":[2,4,-1,6,8,10,12,14,-1,-1,-1,-1,-1,-1,-1],"split_conditions":[3E0,7E-1,2.2113827E-1,2E0,1E0,2.3E1,5E0,1.87E2,2.4911395E-1,1.9197896E-2,-4.5063064E-2,3.588589E-2,2.0876649E-1,-2.3400748E-1,2.4997295E-1],"split_indices":[30,15,0,3,14,1,1,0,0,0,0,0,0,0,0],"split_type":[0,0,0,0,0,0,0,0,0,0,0,0,0,0,0],"sum_hessian":[2.9555695E2,2.9278796E2,2.7689817E0,2.6973627E2,2.3051723E1,2.6371796E2,6.0182877E0,1.8339212E1,4.712511E0,2.023096E2,6.1408363E1,1.1484513E0,4.8698363E0,1.7050596E1,1.2886156E0],"tree_param":{"num_deleted":"0","num_feature":"31","num_nodes":"15","size_leaf_vector":"1"}},{"base_weights":[1.0482566E-2,-4.2945594E-2,1.4221759E-1,-2.006418E-2,-1.352473E0,5.6985605E-1,-2.9467927E-2,1.54229095E-2,-2.5932682E-1,-5.478544E-1,-8.098827E-2,8.4507775E-1,-3.9648968E-1,-1.0165023E0,7.201619E-2,-1.0708682E-2,1.6066042E-1,-1.2525456E-1,1.888402E-1,1.5451315E-1,2.9698008E-1,-2.23258E-1,1.6431677E-1,-5.149867E-2,-3.7925154E-1,-3.248424E-2,9.94498E-2],"categories":[],"categories_nodes":[],"categories_segments":[],"categories_sizes":[],"default_left":[0,0,0,0,0,0,0,0,0,0,0,0,0,0,0,0,0,0,0,0,0,0,0,0,0,0,0],"id":27,"left_children":[1,3,5,7,9,11,13,15,17,-1,-1,19,21,23,25,-1,-1,-1,-1,-1,-1,-1,-1,-1,-1,-1,-1],"loss_changes":[2.0605102E0,6.2182817E0,6.2174025E0,1.7519659E0,1.3347754E0,6.78259E0,6.204729E0,4.810719E0,4.009198E0,0E0,0E0,4.0746498E-1,2.3953602E0,9.9095154E-1,2.6763458E0,0E0,0E0,0E0,0E0,0E0,0E0,0E0,0E0,0E0,0E0,0E0,0E0],"parents":[2147483647,0,0,1,1,2,2,3,3,4,4,5,5,6,6,7,7,8,8,11,11,12,12,13,13,14,14],"right_children":[2,4,6,8,10,12,14,16,18,-1,-1,20,22,24,26,-1,-1,-1,-1,-1,-1,-1,-1,-1,-1,-1,-1],"split_conditions":[1.35E2,2.3E1,2.5E1,1.7E1,1.29E2,4E0,1.7E2,9.6E1,1E0,-5.478544E-1,-8.098827E-2,1.52E2,1E0,1.51E2,1E0,-1.0708682E-2,1.6066042E-1,-1.2525456E-1,1.888402E-1,1.5451315E-1,2.9698008E-1,-2.23258E-1,1.6431677E-1,-5.149867E-2,-3.7925154E-1,-3.248424E-2,9.94498E-2],"split_indices":[0,1,1,1,0,18,0,0,21,0,0,0,14,0,30,0,0,0,0,0,0,0,0,0,0,0,0],"split_type":[0,0,0,0,0,0,0,0,0,0,0,0,0,0,0,0,0,0,0,0,0,0,0,0,0,0,0],"sum_hessian":[2.9088657E2,2.0743184E2,8.345474E1,2.048675E2,2.5643344E0,2.324252E1,6.0212223E1,1.792212E2,2.5646292E1,1.3058907E0,1.2584438E0,1.8187958E1,5.05456E0,4.773062E0,5.543916E1,1.64031E2,1.51902075E1,2.222153E1,3.4247622E0,6.937464E0,1.1250494E1,3.8490098E0,1.2055507E0,1.465867E0,3.307195E0,3.305454E1,2.2384623E1],"tree_param":{"num_deleted":"0","num_feature":"31","num_nodes":"27","size_leaf_vector":"1"}},{"base_weights":[9.699496E-3,-9.043538E-3,2.9798535E-1,2.3904018E-2,-5.894255E-1,7.8005695E-1,-2.4564539E-1,-2.0439684E-2,3.7270898E-1,-6.162879E-1,-3.080528E-1,4.22555E-1,2.686217E-1,-4.0670788E-1,3.2410198E-1,6.0331053E-3,-2.0530637E-1,2.0297864E-1,5.527924E-2,1.4948743E-2,-3.0147046E-1,2.3397405E-1,-5.7317194E-2,2.4450116E-1,-9.891447E-2],"categories":[],"categories_nodes":[],"categories_segments":[],"categories_sizes":[],"default_left":[0,0,0,0,0,0,0,0,0,0,0,0,0,0,0,0,0,0,0,0,0,0,0,0,0],"id":28,"left_children":[1,3,5,7,9,11,13,15,17,-1,19,21,-1,-1,23,-1,-1,-1,-1,-1,-1,-1,-1,-1,-1],"loss_changes":[1.560634E0,5.2095323E0,4.812125E0,3.9991581E0,5.399057E0,1.6861439E-2,6.161052E0,6.2031813E0,1.545155E0,0E0,3.4050379E0,1.0769083E0,0E0,0E0,2.4465754E0,0E0,0E0,0E0,0E0,0E0,0E0,0E0,0E0,0E0,0E0],"parents":[2147483647,0,0,1,1,2,2,3,3,4,4,5,5,6,6,7,7,8,8,10,10,11,11,14,14],"right_children":[2,4,6,8,10,12,14,16,18,-1,20,22,-1,-1,24,-1,-1,-1,-1,-1,-1,-1,-1,-1,-1],"split_conditions":[3.28E2,3.6E1,7.6E1,1.73E2,2.03E2,1E0,5.08E2,2.3E1,2.8E1,-6.162879E-1,4.5E1,1E0,2.686217E-1,-4.0670788E-1,8.9E1,6.0331053E-3,-2.0530637E-1,2.0297864E-1,5.527924E-2,1.4948743E-2,-3.0147046E-1,2.3397405E-1,-5.7317194E-2,2.4450116E-1,-9.891447E-2],"split_indices":[0,1,1,0,0,30,0,1,1,0,1,19,0,0,1,0,0,0,0,0,0,0,0,0,0],"split_type":[0,0,0,0,0,0,0,0,0,0,0,0,0,0,0,0,0,0,0,0,0,0,0,0,0],"sum_hessian":[2.873283E2,2.7069742E2,1.6630884E1,2.5706308E2,1.36343355E1,8.584004E0,8.046881E0,2.2890384E2,2.8159227E1,1.1816297E0,1.2452705E1,3.2315857E0,5.352419E0,2.261433E0,5.7854476E0,2.166417E2,1.226215E1,9.786725E0,1.8372503E1,8.840808E0,3.6118975E0,1.8709518E0,1.360634E0,3.1636035E0,2.621844E0],"tree_param":{"num_deleted":"0","num_feature":"31","num_nodes":"25","size_leaf_vector":"1"}},{"base_weights":[8.075561E-3,-4.090132E-2,1.1286541E-1,4.6394706E-2,-1.9909151E-1,3.6994874E-1,-4.371687E-2,-4.8599787E-2,8.0639017E-1,-2.24045E-1,1.8263087E-1,5.0933754E-1,-3.6405316E-1,-1.936184E-1,3.371836E-1,-4.3686066E-4,-1.0007267E-1,1.5278246E-1,2.973426E-1,1.0493917E-1,-7.825516E-2,7.480817E-2,2.648412E-1,-2.0395952E-1,1.6098814E-1,-1.4336343E-1,3.868343E-2,2.2107078E-1,-5.676344E-3],"categories":[],"categories_nodes":[],"categories_segments":[],"categories_sizes":[],"default_left":[0,0,0,0,0,0,0,0,0,0,0,0,0,0,0,0,0,0,0,0,0,0,0,0,0,0,0,0,0],"id":29,"left_children":[1,3,5,7,9,11,13,15,17,19,-1,21,23,25,27,-1,-1,-1,-1,-1,-1,-1,-1,-1,-1,-1,-1,-1,-1],"loss_changes":[1.4795572E0,2.723924E0,3.7116442E0,9.243245E0,1.5494285E0,3.7514997E0,3.3739297E0,1.5346606E0,2.758932E-1,1.5427666E0,0E0,2.6644049E0,2.112996E0,3.9326444E0,2.395236E0,0E0,0E0,0E0,0E0,0E0,0E0,0E0,0E0,0E0,0E0,0E0,0E0,0E0,0E0],"parents":[2147483647,0,0,1,1,2,2,3,3,4,4,5,5,6,6,7,7,8,8,9,9,11,11,12,12,13,13,14,14],"right_children":[2,4,6,8,10,12,14,16,18,20,-1,22,24,26,28,-1,-1,-1,-1,-1,-1,-1,-1,-1,-1,-1,-1,-1,-1],"split_conditions":[1.23E2,9E0,2.6E1,5.4E1,9E-1,3E0,1E0,7E0,6.7E1,4.9E1,1.8263087E-1,1.52E2,1E0,2.2E2,4.1E1,-4.3686066E-4,-1.0007267E-1,1.5278246E-1,2.973426E-1,1.0493917E-1,-7.825516E-2,7.480817E-2,2.648412E-1,-2.0395952E-1,1.6098814E-1,-1.4336343E-1,3.868343E-2,2.2107078E-1,-5.676344E-3],"split_indices":[0,1,1,0,10,18,19,1,0,0,0,0,14,0,1,0,0,0,0,0,0,0,0,0,0,0,0,0,0],"split_type":[0,0,0,0,0,0,0,0,0,0,0,0,0,0,0,0,0,0,0,0,0,0,0,0,0,0,0,0,0],"sum_hessian":[2.8638513E2,1.955829E2,9.080223E1,1.2648813E2,6.909477E1,3.3855007E1,5.694722E1,1.13266594E2,1.3221537E1,6.772552E1,1.3692598E0,2.870915E1,5.1458583E0,4.1217827E1,1.5729393E1,9.8051094E1,1.5215499E1,6.509531E0,6.712005E0,3.569458E0,6.415606E1,1.790962E1,1.079953E1,3.991467E0,1.1543913E0,2.1653826E1,1.9564E1,6.907051E0,8.822342E0],"tree_param":{"num_deleted":"0","num_feature":"31","num_nodes":"29","size_leaf_vector":"1"}},{"base_weights":[1.2469059E-2,-2.6922074E-1,2.8738836E-2,1.373974E-1,-4.3924198E-1,1.6824204E-2,2.3554108E-1,-2.591658E-1,-1.4829755E-1,6.2841913E-3,2.2598736E-1,-1.8794456E-1,9.136781E-3,8.88751E-3,-1.02730006E-1],"categories":[],"categories_nodes":[],"categories_segments":[],"categories_sizes":[],"default_left":[0,0,0,0,0,0,0,0,0,0,0,0,0,0,0],"id":30,"left_children":[1,3,5,-1,7,9,-1,11,-1,13,-1,-1,-1,-1,-1],"loss_changes":[1.3035933E0,2.1220355E0,2.404E0,0E0,1.8515587E-3,2.0528977E0,0E0,5.6919897E-1,0E0,2.1454725E0,0E0,0E0,0E0,0E0,0E0],"parents":[2147483647,0,0,1,1,2,2,4,4,5,5,7,7,9,9],"right_children":[2,4,6,-1,8,10,-1,12,-1,14,-1,-1,-1,-1,-1],"split_conditions":[2.1E1,2E0,1E0,1.373974E-1,3E0,1E0,2.3554108E-1,1.1E1,-1.4829755E-1,7E-1,2.2598736E-1,-1.8794456E-1,9.136781E-3,8.88751E-3,-1.02730006E-1],"split_indices":[0,1,10,0,1,27,0,0,0,15,0,0,0,0,0],"split_type":[0,0,0,0,0,0,0,0,0,0,0,0,0,0,0],"sum_hessian":[2.8175092E2,1.4535775E1,2.6721515E2,2.4335034E0,1.2102272E1,2.640777E2,3.1374564E0,4.171131E0,7.931141E0,2.6134595E2,2.731743E0,1.326138E0,2.844993E0,2.4580821E2,1.5537727E1],"tree_param":{"num_deleted":"0","num_feature":"31","num_nodes":"15","size_leaf_vector":"1"}},{"base_weights":[1.0053564E-2,3.5459553E-3,1.9582127E-1,-7.8200875E-3,3.2691112E-1,5.237552E-3,-4.9183214E-1,7.450061E-1,-3.9341712E-1,-2.7659854E-3,1.843254E-1,2.5265363E-1,6.1133076E-2,-3.8192666E-1,1.10271275E-1],"categories":[],"categories_nodes":[],"categories_segments":[],"categories_sizes":[],"default_left":[0,0,0,0,0,0,0,0,0,0,0,0,0,0,0],"id":31,"left_children":[1,3,-1,5,7,9,-1,11,13,-1,-1,-1,-1,-1,-1],"loss_changes":[1.1693146E0,1.0255433E0,0E0,5.7579923E0,3.1464689E0,2.3722966E0,0E0,1.6184473E-1,3.2353156E0,0E0,0E0,0E0,0E0,0E0,0E0],"parents":[2147483647,0,0,1,1,3,3,4,4,5,5,7,7,8,8],"right_children":[2,4,-1,6,8,10,-1,12,14,-1,-1,-1,-1,-1,-1],"split_conditions":[1E0,4.67E2,1.9582127E-1,7.6E1,8.8E1,3.28E2,-4.9183214E-1,8.4E1,5.87E2,-2.7659854E-3,1.843254E-1,2.5265363E-1,6.1133076E-2,-3.8192666E-1,1.10271275E-1],"split_indices":[24,0,0,1,1,0,0,1,0,0,0,0,0,0,0],"split_type":[0,0,0,0,0,0,0,0,0,0,0,0,0,0,0],"sum_hessian":[2.7913748E2,2.773348E2,1.8026845E0,2.6886038E2,8.474424E0,2.677147E2,1.145695E0,5.3404474E0,3.1339767E0,2.6247043E2,5.2442694E0,4.0561543E0,1.2842929E0,1.141503E0,1.9924737E0],"tree_param":{"num_deleted":"0","num_feature":"31","num_nodes":"15","size_leaf_vector":"1"}},{"base_weights":[8.137651E-3,1.5365204E-1,1.0932421E-3,-9.4873145E-2,1.739441E-2,7.900386E-3,2.1946087E-1,-1.5403437E-4,2.0962486E-1],"categories":[],"categories_nodes":[],"categories_segments":[],"categories_sizes":[],"default_left":[0,0,0,0,0,0,0,0,0],"id":32,"left_children":[1,-1,3,-1,5,7,-1,-1,-1],"loss_changes":[9.9004304E-1,0E0,1.4340146E0,0E0,1.7814864E0,1.5183884E0,0E0,0E0,0E0],"parents":[2147483647,0,0,2,2,4,4,5,5],"right_children":[2,-1,4,-1,6,8,-1,-1,-1],"split_conditions":[2E0,1.5365204E-1,2.1E1,-9.4873145E-2,1E0,1E0,2.1946087E-1,-1.5403437E-4,2.0962486E-1],"split_indices":[1,0,0,0,10,27,0,0,0],"split_type":[0,0,0,0,0,0,0,0,0],"sum_hessian":[2.7799323E2,2.8433282E0,2.751499E2,1.2544494E1,2.626054E2,2.6015784E2,2.447557E0,2.5801474E2,2.1430986E0],"tree_param":{"num_deleted":"0","num_feature":"31","num_nodes":"9","size_leaf_vector":"1"}},{"base_weights":[7.98921E-3,2.8062304E-2,-1.6620761E-1,-1.6606394E-2,2.2800797E-1,-8.649691E-1,3.911509E-2,-3.5996054E-4,-8.2231015E-1,5.946031E-1,8.944401E-2,-2.9803243E-1,-4.2941293E-1,6.4554244E-1,-9.5283374E-2,4.474644E-3,-1.5074089E-1,-3.7754408E-1,4.859681E-2,2.516976E-1,-5.9162293E-2,-8.649917E-2,8.334417E-2,-1.8895109E-1,-4.3339846E-3,2.4018121E-1,1.933515E-2,-1.2096415E-1,8.7596856E-2],"categories":[],"categories_nodes":[],"categories_segments":[],"categories_sizes":[],"default_left":[0,0,0,0,0,0,0,0,0,0,0,0,0,0,0,0,0,0,0,0,0,0,0,0,0,0,0,0,0],"id":33,"left_children":[1,3,5,7,9,11,13,15,17,19,21,23,-1,25,27,-1,-1,-1,-1,-1,-1,-1,-1,-1,-1,-1,-1,-1,-1],"loss_changes":[9.776088E-1,2.2397783E0,4.179409E0,2.6905699E0,2.2725377E0,1.6945181E0,1.9596566E0,1.56071E0,1.9481051E0,2.5614119E0,2.5282764E0,4.203637E-1,0E0,3.406906E-1,2.4951186E0,0E0,0E0,0E0,0E0,0E0,0E0,0E0,0E0,0E0,0E0,0E0,0E0,0E0,0E0],"parents":[2147483647,0,0,1,1,2,2,3,3,4,4,5,5,6,6,7,7,8,8,9,9,10,10,11,11,13,13,14,14],"right_children":[2,4,6,8,10,12,14,16,18,20,22,24,-1,26,28,-1,-1,-1,-1,-1,-1,-1,-1,-1,-1,-1,-1,-1,-1],"split_conditions":[3.6E1,1.35E2,2.33E2,2.3E1,2.3E1,1E0,4.2E1,8.181818E-1,1.31E2,3E0,1.75E2,2.01E2,-4.2941293E-1,2.56E2,1E0,4.474644E-3,-1.5074089E-1,-3.7754408E-1,4.859681E-2,2.516976E-1,-5.9162293E-2,-8.649917E-2,8.334417E-2,-1.8895109E-1,-4.3339846E-3,2.4018121E-1,1.933515E-2,-1.2096415E-1,8.7596856E-2],"split_indices":[1,0,0,1,1,2,1,15,0,18,0,0,0,0,30,0,0,0,0,0,0,0,0,0,0,0,0,0,0],"split_type":[0,0,0,0,0,0,0,0,0,0,0,0,0,0,0,0,0,0,0,0,0,0,0,0,0,0,0,0,0],"sum_hessian":[2.7724896E2,2.4935422E2,2.7894747E1,2.0456949E2,4.4784733E1,5.6054273E0,2.228932E1,2.015067E2,3.0627897E0,1.1381584E1,3.340315E1,3.5641382E0,2.0412893E0,3.3536983E0,1.8935621E1,1.96499E2,5.007701E0,1.9293071E0,1.1334826E0,8.651692E0,2.729892E0,1.0937467E1,2.2465681E1,1.0797828E0,2.4843552E0,2.3490956E0,1.0046027E0,1.0525427E1,8.410193E0],"tree_param":{"num_deleted":"0","num_feature":"31","num_nodes":"29","size_leaf_vector":"1"}},{"base_weights":[5.222632E-3,-1.0059226E-2,2.1945488E-1,1.2890913E-1,-3.736943E-2,-2.3295264E-1,4.6761096E-1,2.8625008E-1,-3.1608355E-1,-7.839509E-1,2.2551346E-4,2.3174368E-1,-2.9712096E-1,7.194899E-1,-1.7573053E-1,-5.1949743E-2,1.6568823E-1,-1.3939138E-1,1.6518058E-1,-2.6681554E-1,8.388538E-3,6.90472E-2,-1.3794896E-2,-6.7797825E-2,2.3797499E-1,2.4486305E-1,8.1891725E-3],"categories":[],"categories_nodes":[],"categories_segments":[],"categories_sizes":[],"default_left":[0,0,0,0,0,0,0,0,0,0,0,0,0,0,0,0,0,0,0,0,0,0,0,0,0,0,0],"id":34,"left_children":[1,3,5,7,9,11,13,15,17,19,21,23,-1,25,-1,-1,-1,-1,-1,-1,-1,-1,-1,-1,-1,-1,-1],"loss_changes":[9.033924E-1,9.83591E-1,2.1715145E0,3.0718977E0,6.0715523E0,2.755106E0,3.657543E0,4.004842E0,1.7491382E0,9.126353E-1,2.209293E0,1.5305368E0,0E0,6.6675186E-1,0E0,0E0,0E0,0E0,0E0,0E0,0E0,0E0,0E0,0E0,0E0,0E0,0E0],"parents":[2147483647,0,0,1,1,2,2,3,3,4,4,5,5,6,6,7,7,8,8,9,9,10,10,11,11,13,13],"right_children":[2,4,6,8,10,12,14,16,18,20,22,24,-1,26,-1,-1,-1,-1,-1,-1,-1,-1,-1,-1,-1,-1,-1],"split_conditions":[1E0,4E0,8.7E1,3.2E1,2.8E1,8E0,2.09E2,2.1E1,4.9E1,6E0,6E0,4E0,-2.9712096E-1,7E-1,-1.7573053E-1,-5.1949743E-2,1.6568823E-1,-1.3939138E-1,1.6518058E-1,-2.6681554E-1,8.388538E-3,6.90472E-2,-1.3794896E-2,-6.7797825E-2,2.3797499E-1,2.4486305E-1,8.1891725E-3],"split_indices":[21,1,0,0,0,1,0,0,0,1,1,1,0,15,0,0,0,0,0,0,0,0,0,0,0,0,0],"split_type":[0,0,0,0,0,0,0,0,0,0,0,0,0,0,0,0,0,0,0,0,0,0,0,0,0,0,0],"sum_hessian":[2.7426614E2,2.5689413E2,1.7372017E1,4.1582222E1,2.153119E2,6.1752777E0,1.119674E1,3.0983704E1,1.0598517E1,9.370701E0,2.0594121E2,4.2574053E0,1.9178727E0,9.291881E0,1.9048594E0,1.1490514E1,1.9493189E1,9.443708E0,1.1548091E0,8.209238E0,1.1614624E0,3.379545E1,1.7214575E2,2.6746066E0,1.5827985E0,7.9955006E0,1.29638E0],"tree_param":{"num_deleted":"0","num_feature":"31","num_nodes":"27","size_leaf_vector":"1"}},{"base_weights":[5.0361203E-3,-3.408777E-5,1.7542969E-1,-7.20382E-3,3.919557E-1,6.4804507E-3,-5.82557E-1,-2.9608801E-2,1.8130265E-1,-7.3042384E-4,1.3127467E-1,-2.2181544E-1,1.1928592E-2],"categories":[],"categories_nodes":[],"categories_segments":[],"categories_sizes":[],"default_left":[0,0,0,0,0,0,0,0,0,0,0,0,0],"id":35,"left_children":[1,3,-1,5,7,9,11,-1,-1,-1,-1,-1,-1],"loss_changes":[8.0205524E-1,7.6585215E-1,0E0,2.1106763E0,5.697092E-1,1.0094597E0,6.37213E-1,0E0,0E0,0E0,0E0,0E0,0E0],"parents":[2147483647,0,0,1,1,3,3,4,4,5,5,6,6],"right_children":[2,4,-1,6,8,10,12,-1,-1,-1,-1,-1,-1],"split_conditions":[1E0,9.722222E-1,1.7542969E-1,8.181818E-1,1.28E2,2E0,1E0,-2.9608801E-2,1.8130265E-1,-7.3042384E-4,1.3127467E-1,-2.2181544E-1,1.1928592E-2],"split_indices":[24,15,0,15,0,3,21,0,0,0,0,0,0],"split_type":[0,0,0,0,0,0,0,0,0,0,0,0,0],"sum_hessian":[2.7186154E2,2.704958E2,1.3657655E0,2.666011E2,3.8946745E0,2.613733E2,5.227798E0,1.3382865E0,2.556388E0,2.5705182E2,4.3214865E0,4.025291E0,1.2025073E0],"tree_param":{"num_deleted":"0","num_feature":"31","num_nodes":"13","size_leaf_vector":"1"}},{"base_weights":[4.40573E-3,-5.0507784E-2,5.5969406E-2,6.2602326E-2,-1.5962183E-1,2.6786527E-1,-1.2589443E-2,9.669766E-2,-4.197565E-1,-3.9785627E-1,-7.3277034E-2,-2.0670019E-1,4.1274916E-2,2.2336215E-2,1.837327E-1,-1.746507E-1,2.1125982E-2,-1.6176894E-1,-5.5946525E-2,1.04775555E-1,-5.52547E-2,-2.5558887E-2,-1.7571773E-1,2.2213848E-1,3.8696927E-4],"categories":[],"categories_nodes":[],"categories_segments":[],"categories_sizes":[],"default_left":[0,0,0,0,0,0,0,0,0,0,0,0,0,0,0,0,0,0,0,0,0,0,0,0,0],"id":36,"left_children":[1,3,5,7,9,-1,11,13,15,17,19,21,23,-1,-1,-1,-1,-1,-1,-1,-1,-1,-1,-1,-1],"loss_changes":[7.710396E-1,1.6380208E0,8.066799E0,1.1176105E0,1.3577585E0,0E0,1.3756155E0,6.654027E-1,4.0008885E-1,4.2865205E-1,2.4407659E0,1.2657288E0,2.8837316E0,0E0,0E0,0E0,0E0,0E0,0E0,0E0,0E0,0E0,0E0,0E0,0E0],"parents":[2147483647,0,0,1,1,2,2,3,3,4,4,6,6,7,7,8,8,9,9,10,10,11,11,12,12],"right_children":[2,4,6,8,10,-1,12,14,16,18,20,22,24,-1,-1,-1,-1,-1,-1,-1,-1,-1,-1,-1,-1],"split_conditions":[6.7E1,5E0,1.1E1,1E0,3.6E1,2.6786527E-1,1.03E2,4.9E1,2E0,6E0,6E0,9.5E1,1.5E1,2.2336215E-2,1.837327E-1,-1.746507E-1,2.1125982E-2,-1.6176894E-1,-5.5946525E-2,1.04775555E-1,-5.52547E-2,-2.5558887E-2,-1.7571773E-1,2.2213848E-1,3.8696927E-4],"split_indices":[0,1,1,30,0,0,0,0,3,1,1,0,1,0,0,0,0,0,0,0,0,0,0,0,0],"split_type":[0,0,0,0,0,0,0,0,0,0,0,0,0,0,0,0,0,0,0,0,0,0,0,0,0],"sum_hessian":[2.703054E2,1.3091063E2,1.3939476E2,6.448759E1,6.6423035E1,9.644034E0,1.2975073E2,6.097699E1,3.5106013E0,1.6710165E1,4.9712868E1,2.7567701E1,1.0218302E2,5.9552887E1,1.424101E0,2.495938E0,1.0146632E0,9.083509E0,7.626656E0,9.888894E0,3.9823975E1,2.1803082E1,5.7646194E0,4.5798745E0,9.760315E1],"tree_param":{"num_deleted":"0","num_feature":"31","num_nodes":"25","size_leaf_vector":"1"}},{"base_weights":[5.170328E-3,-4.604244E-3,2.6827043E-1,4.4199927E-3,-3.3995467E-1,6.2118113E-1,-3.2866275E-1,-5.441297E-3,4.9850938E-1,3.5697557E-2,6.9260377E-1,-2.6955712E-1,9.2933126E-2,4.0322104E-3,-1.6041258E-1,2.3585828E-1,-2.5231156E-2,2.3971468E-1,5.2194413E-2],"categories":[],"categories_nodes":[],"categories_segments":[],"categories_sizes":[],"default_left":[0,0,0,0,0,0,0,0,0,0,0,0,0,0,0,0,0,0,0],"id":37,"left_children":[1,3,5,7,-1,9,11,13,15,-1,17,-1,-1,-1,-1,-1,-1,-1,-1],"loss_changes":[6.9095254E-1,2.6486356E0,2.2315593E0,1.262262E0,0E0,1.4692998E-1,1.8171941E0,2.549963E0,9.157816E-1,0E0,1.5856528E-1,0E0,0E0,0E0,0E0,0E0,0E0,0E0,0E0],"parents":[2147483647,0,0,1,1,2,2,3,3,5,5,6,6,7,7,8,8,10,10],"right_children":[2,4,6,8,-1,10,12,14,16,-1,18,-1,-1,-1,-1,-1,-1,-1,-1],"split_conditions":[4.51E2,7.3E1,8.8E1,3.28E2,-3.3995467E-1,4.67E2,5.87E2,4.1E1,1E0,3.5697557E-2,8.4E1,-2.6955712E-1,9.2933126E-2,4.0322104E-3,-1.6041258E-1,2.3585828E-1,-2.5231156E-2,2.3971468E-1,5.2194413E-2],"split_indices":[0,1,1,0,0,0,0,1,19,0,1,0,0,0,0,0,0,0,0],"split_type":[0,0,0,0,0,0,0,0,0,0,0,0,0,0,0,0,0,0,0],"sum_hessian":[2.67196E2,2.5857217E2,8.623853E0,2.575092E2,1.0629889E0,5.3941665E0,3.229686E0,2.5343988E2,4.069296E0,1.0036056E0,4.3905606E0,1.4912483E0,1.7384377E0,2.4565071E2,7.789164E0,2.4902327E0,1.5790633E0,3.1942413E0,1.1963193E0],"tree_param":{"num_deleted":"0","num_feature":"31","num_nodes":"19","size_leaf_vector":"1"}},{"base_weights":[4.0678266E-3,-1.8451553E-4,1.606034E-1,1.266745E-1,-5.4604216E-3,-6.7163184E-2,3.145632E-2,-1.1883783E-4,-8.379452E-2,1.2931569E-1,-8.020684E-3],"categories":[],"categories_nodes":[],"categories_segments":[],"categories_sizes":[],"default_left":[0,0,0,0,0,0,0,0,0,0,0],"id":38,"left_children":[1,3,-1,-1,5,7,9,-1,-1,-1,-1],"loss_changes":[6.0464686E-1,5.9619635E-1,0E0,0E0,6.0386163E-1,1.4051458E0,3.870738E0,0E0,0E0,0E0,0E0],"parents":[2147483647,0,0,1,1,4,4,5,5,6,6],"right_children":[2,4,-1,-1,6,8,10,-1,-1,-1,-1],"split_conditions":[1E0,2E0,1.606034E-1,1.266745E-1,4.6E1,3.9E1,9E0,-1.1883783E-4,-8.379452E-2,1.2931569E-1,-8.020684E-3],"split_indices":[24,1,0,0,0,0,1,0,0,0,0],"split_type":[0,0,0,0,0,0,0,0,0,0,0],"sum_hessian":[2.6659732E2,2.654721E2,1.1251872E0,2.299774E0,2.6317233E2,9.8207954E1,1.649644E2,7.546117E1,2.2746784E1,2.0155048E1,1.4480934E2],"tree_param":{"num_deleted":"0","num_feature":"31","num_nodes":"11","size_leaf_vector":"1"}},{"base_weights":[4.571659E-3,4.0044112E-4,1.5821992E-1,-1.5296769E-2,1.2951563E-1,8.231974E-4,-6.189952E-1,2.2376406E-1,-4.721779E-2,2.9745393E-3,-2.3505597E-1,-4.4880185E-1,5.6303438E-2,-1.2773445E-1,2.8272668E-2],"categories":[],"categories_nodes":[],"categories_segments":[],"categories_sizes":[],"default_left":[0,0,0,0,0,0,0,0,0,0,0,0,0,0,0],"id":39,"left_children":[1,3,-1,5,7,9,11,-1,13,-1,-1,-1,-1,-1,-1],"loss_changes":[5.8172286E-1,5.4054767E-1,0E0,2.3148732E0,3.1844335E0,1.6667204E0,4.65743E0,0E0,1.2936667E0,0E0,0E0,0E0,0E0,0E0,0E0],"parents":[2147483647,0,0,1,1,3,3,4,4,5,5,6,6,8,8],"right_children":[2,4,-1,6,8,10,12,-1,14,-1,-1,-1,-1,-1,-1],"split_conditions":[3E0,2.2E2,1.5821992E-1,3.5E1,3.8E1,2.12E2,2.03E2,2.2376406E-1,2.71E2,2.9745393E-3,-2.3505597E-1,-4.4880185E-1,5.6303438E-2,-1.2773445E-1,2.8272668E-2],"split_indices":[30,0,0,1,1,0,0,0,0,0,0,0,0,0,0],"split_type":[0,0,0,0,0,0,0,0,0,0,0,0,0,0,0],"sum_hessian":[2.6584064E2,2.6472934E2,1.1112932E0,2.3681949E2,2.7909857E1,2.3163304E2,5.186434E0,5.5017896E0,2.2408068E1,2.2995482E2,1.6782272E0,2.0754633E0,3.1109705E0,5.548832E0,1.6859236E1],"tree_param":{"num_deleted":"0","num_feature":"31","num_nodes":"15","size_leaf_vector":"1"}},{"base_weights":[2.8692072E-3,-4.523553E-2,4.8245773E-2,-4.0509203E-3,-2.362422E-1,7.6084363E-1,4.1245975E-4,-6.644028E-2,9.233141E-2,-2.79738E-1,9.0785086E-2,2.9478446E-1,4.4161898E-1,-1.6266635E-1,1.6930053E-2,3.7255242E-2,-8.451195E-2,1.1626465E-1,-9.620628E-3,-4.3672483E-2,-2.7278003E-1,-5.4957174E-2,2.3885216E-1,-3.956539E-3,9.853818E-2],"categories":[],"categories_nodes":[],"categories_segments":[],"categories_sizes":[],"default_left":[0,0,0,0,0,0,0,0,0,0,0,0,0,0,0,0,0,0,0,0,0,0,0,0,0],"id":40,"left_children":[1,3,5,7,9,11,13,15,17,19,-1,-1,21,-1,23,-1,-1,-1,-1,-1,-1,-1,-1,-1,-1],"loss_changes":[5.826338E-1,1.0185019E0,4.6804585E0,6.533099E-1,6.23008E-1,1.7754555E-1,1.1715496E0,2.7398221E0,1.5809501E0,1.7065929E0,0E0,0E0,1.3325995E0,0E0,1.1943016E0,0E0,0E0,0E0,0E0,0E0,0E0,0E0,0E0,0E0,0E0],"parents":[2147483647,0,0,1,1,2,2,3,3,4,4,5,5,6,6,7,7,8,8,9,9,12,12,14,14],"right_children":[2,4,6,8,10,12,14,16,18,20,-1,-1,22,-1,24,-1,-1,-1,-1,-1,-1,-1,-1,-1,-1],"split_conditions":[6.7E1,8E0,1.1E1,3.6E1,1.3E1,7.4E1,1.2E1,4E0,3.9E1,6.2E1,9.0785086E-2,2.9478446E-1,8.1E1,-1.6266635E-1,1E0,3.7255242E-2,-8.451195E-2,1.1626465E-1,-9.620628E-3,-4.3672483E-2,-2.7278003E-1,-5.4957174E-2,2.3885216E-1,-3.956539E-3,9.853818E-2],"split_indices":[0,1,1,0,1,0,1,1,0,0,0,0,0,0,21,0,0,0,0,0,0,0,0,0,0],"split_type":[0,0,0,0,0,0,0,0,0,0,0,0,0,0,0,0,0,0,0,0,0,0,0,0,0],"sum_hessian":[2.6491718E2,1.285944E2,1.3632277E2,1.0662523E2,2.1969183E1,7.6374555E0,1.2868532E2,6.491541E1,4.1709812E1,2.0773268E1,1.1959137E0,3.280384E0,4.3570714E0,2.8612447E0,1.2582407E2,3.465263E1,3.0262785E1,1.173821E1,2.9971603E1,1.8138826E1,2.634442E0,1.7523457E0,2.6047256E0,1.1560513E2,1.0218943E1],"tree_param":{"num_deleted":"0","num_feature":"31","num_nodes":"25","size_leaf_vector":"1"}},{"base_weights":[3.8211425E-3,-1.682282E-3,3.1845483E-1,9.653632E-3,-5.323617E-1,-2.3568626E-3,1.7259628E-1,2.145977E-3,3.8603038E-1,-2.0588425E-1,-8.955453E-4,6.2609003E-3,-4.9452282E-2,1.4357193E-1,3.1209833E-3],"categories":[],"categories_nodes":[],"categories_segments":[],"categories_sizes":[],"default_left":[0,0,0,0,0,0,0,0,0,0,0,0,0,0,0],"id":41,"left_children":[1,3,5,7,9,-1,-1,11,13,-1,-1,-1,-1,-1,-1],"loss_changes":[4.564026E-1,1.5676541E0,3.8430616E-1,7.205403E-1,4.4202936E-1,0E0,0E0,7.891601E-1,1.6838026E-1,0E0,0E0,0E0,0E0,0E0,0E0],"parents":[2147483647,0,0,1,1,2,2,3,3,4,4,7,7,8,8],"right_children":[2,4,6,8,10,-1,-1,12,14,-1,-1,-1,-1,-1,-1],"split_conditions":[9.722222E-1,8.181818E-1,1E0,2E0,1E0,-2.3568626E-3,1.7259628E-1,1E0,1.91E2,-2.0588425E-1,-8.955453E-4,6.2609003E-3,-4.9452282E-2,1.4357193E-1,3.1209833E-3],"split_indices":[15,15,30,3,21,0,0,2,0,0,0,0,0,0,0],"split_type":[0,0,0,0,0,0,0,0,0,0,0,0,0,0,0],"sum_hessian":[2.6226904E2,2.5873798E2,3.5310695E0,2.542879E2,4.450069E0,1.9822825E0,1.548787E0,2.5030081E2,3.9870932E0,3.218018E0,1.2320508E0,2.258518E2,2.4448996E1,2.9790783E0,1.008015E0],"tree_param":{"num_deleted":"0","num_feature":"31","num_nodes":"15","size_leaf_vector":"1"}},{"base_weights":[2.961693E-3,-2.4237927E-2,7.837593E-2,-1.0419819E-2,-6.6724056E-1,3.9553577E-1,-3.3145204E-2,-1.6693601E-2,1.6471864E-1,-2.8603217E-1,2.8658025E-2,5.8873916E-1,-1.4045301E-1,-1.6538247E-1,1.2968172E-1,1.5440652E-3,-8.511926E-2,2.0412615E-1,1.380093E-2,-2.2714016E-1,1.02096595E-1,-8.0966584E-2,1.0935074E-1,2.0827669E-1,-6.251984E-3],"categories":[],"categories_nodes":[],"categories_segments":[],"categories_sizes":[],"default_left":[0,0,0,0,0,0,0,0,0,0,0,0,0,0,0,0,0,0,0,0,0,0,0,0,0],"id":42,"left_children":[1,3,5,7,9,11,13,15,-1,-1,-1,17,19,21,23,-1,-1,-1,-1,-1,-1,-1,-1,-1,-1],"loss_changes":[5.401772E-1,1.7133918E0,2.481732E0,6.780592E-1,9.768523E-1,1.9709342E0,1.1531565E0,1.1062087E0,0E0,0E0,0E0,6.451988E-1,1.9294416E0,1.7288697E0,2.0638595E0,0E0,0E0,0E0,0E0,0E0,0E0,0E0,0E0,0E0,0E0],"parents":[2147483647,0,0,1,1,2,2,3,3,4,4,5,5,6,6,7,7,11,11,12,12,13,13,14,14],"right_children":[2,4,6,8,10,12,14,16,-1,-1,-1,18,20,22,24,-1,-1,-1,-1,-1,-1,-1,-1,-1,-1],"split_conditions":[1.35E2,2.3E1,2.7E1,2.5E0,1.31E2,1E0,2.33E2,1.5E0,1.6471864E-1,-2.8603217E-1,2.8658025E-2,2.6E1,1.61E2,1E0,4.2E1,1.5440652E-3,-8.511926E-2,2.0412615E-1,1.380093E-2,-2.2714016E-1,1.02096595E-1,-8.0966584E-2,1.0935074E-1,2.0827669E-1,-6.251984E-3],"split_indices":[0,1,1,30,0,19,0,30,0,0,0,1,0,19,1,0,0,0,0,0,0,0,0,0,0],"split_type":[0,0,0,0,0,0,0,0,0,0,0,0,0,0,0,0,0,0,0,0,0,0,0,0,0],"sum_hessian":[2.614159E2,1.926217E2,6.879418E1,1.8956418E2,3.0575237E0,1.723424E1,5.155994E1,1.8842146E2,1.1427126E0,2.0415378E0,1.0159861E0,1.2595593E1,4.638646E0,2.8443949E1,2.3115992E1,1.7508252E2,1.333895E1,1.0558347E1,2.0372467E0,1.7802867E0,2.8583593E0,2.4168085E1,4.275865E0,4.1053586E0,1.9010633E1],"tree_param":{"num_deleted":"0","num_feature":"31","num_nodes":"25","size_leaf_vector":"1"}},{"base_weights":[4.1088006E-3,-4.1556386E-3,2.3245543E-1,4.2923978E-3,-3.1772137E-1,5.60668E-1,-2.4592374E-1,-2.5489822E-3,1.9655427E-1,2.1445565E-1,2.560202E-1,-1.8807636E-1,7.889739E-2,1.1072145E-3,-2.056644E-1,-9.366705E-2,1.8768626E-1],"categories":[],"categories_nodes":[],"categories_segments":[],"categories_sizes":[],"default_left":[0,0,0,0,0,0,0,0,0,0,0,0,0,0,0,0,0],"id":43,"left_children":[1,3,5,7,-1,9,11,13,-1,-1,15,-1,-1,-1,-1,-1,-1],"loss_changes":[4.936912E-1,2.2588878E0,1.5725058E0,1.1235663E0,0E0,8.585119E-2,1.0205603E0,1.0693147E0,0E0,0E0,9.26521E-1,0E0,0E0,0E0,0E0,0E0,0E0],"parents":[2147483647,0,0,1,1,2,2,3,3,5,5,6,6,7,7,10,10],"right_children":[2,4,6,8,-1,10,12,14,-1,-1,16,-1,-1,-1,-1,-1,-1],"split_conditions":[4.51E2,7.6E1,8.8E1,3.91E2,-3.1772137E-1,8E1,5.87E2,6E1,1.9655427E-1,2.1445565E-1,5.08E2,-1.8807636E-1,7.889739E-2,1.1072145E-3,-2.056644E-1,-9.366705E-2,1.8768626E-1],"split_indices":[0,1,1,0,0,1,0,1,0,0,0,0,0,0,0,0,0],"split_type":[0,0,0,0,0,0,0,0,0,0,0,0,0,0,0,0,0],"sum_hessian":[2.600939E2,2.5195676E2,8.137148E0,2.5094307E2,1.0136858E0,4.724017E0,3.413131E0,2.4931862E2,1.6244624E0,2.2425578E0,2.4814596E0,1.8192658E0,1.593865E0,2.4804712E2,1.2714962E0,1.039113E0,1.4423466E0],"tree_param":{"num_deleted":"0","num_feature":"31","num_nodes":"17","size_leaf_vector":"1"}},{"base_weights":[2.961527E-3,-3.311923E-2,4.731825E-2,-1.497887E-3,-6.6724354E-1,3.6783895E-1,-3.341298E-2,-3.680069E-2,3.996649E-1,-7.8691375E-1,-3.687933E-2,5.585527E-1,-9.4748594E-2,-3.3475778E-1,4.3200906E-2,7.2615664E-4,-4.572347E-2,2.4307235E-1,4.7345858E-2,-2.7825266E-1,-5.955904E-2,8.8646576E-2,2.1238734E-1,-1.96626E-1,2.1829383E-1,-5.6388233E-2,-3.6949706E-1,1.9989961E-1,4.457257E-3],"categories":[],"categories_nodes":[],"categories_segments":[],"categories_sizes":[],"default_left":[0,0,0,0,0,0,0,0,0,0,0,0,0,0,0,0,0,0,0,0,0,0,0,0,0,0,0,0,0],"id":44,"left_children":[1,3,5,7,9,11,13,15,17,19,-1,21,23,25,27,-1,-1,-1,-1,-1,-1,-1,-1,-1,-1,-1,-1,-1,-1],"loss_changes":[4.1845432E-1,2.8911057E0,3.046363E0,1.9745094E0,3.4935427E-1,2.1415393E0,2.1980386E0,5.81251E-1,9.9190676E-1,2.6496577E-1,0E0,4.5536232E-1,4.057826E0,2.307731E0,1.3375696E0,0E0,0E0,0E0,0E0,0E0,0E0,0E0,0E0,0E0,0E0,0E0,0E0,0E0,0E0],"parents":[2147483647,0,0,1,1,2,2,3,3,4,4,5,5,6,6,7,7,8,8,9,9,11,11,12,12,13,13,14,14],"right_children":[2,4,6,8,10,12,14,16,18,20,-1,22,24,26,28,-1,-1,-1,-1,-1,-1,-1,-1,-1,-1,-1,-1,-1,-1],"split_conditions":[8.4E1,7.9E1,1.7E1,6.7E1,8.3E1,7E-1,1.23E2,7E0,7E1,1.4E1,-3.687933E-2,9.6E1,1E0,1E0,1.8E1,7.2615664E-4,-4.572347E-2,2.4307235E-1,4.7345858E-2,-2.7825266E-1,-5.955904E-2,8.8646576E-2,2.1238734E-1,-1.96626E-1,2.1829383E-1,-5.6388233E-2,-3.6949706E-1,1.9989961E-1,4.457257E-3],"split_indices":[0,0,1,0,0,15,0,1,0,1,0,0,14,14,1,0,0,0,0,0,0,0,0,0,0,0,0,0,0],"split_type":[0,0,0,0,0,0,0,0,0,0,0,0,0,0,0,0,0,0,0,0,0,0,0,0,0,0,0,0,0],"sum_hessian":[2.594854E2,1.4323123E2,1.1625417E2,1.3738284E2,5.8483925E0,2.267462E1,9.357955E1,1.2710566E2,1.0277184E1,4.428959E0,1.4194337E0,1.5908482E1,6.7661376E0,1.8285992E1,7.5293564E1,9.563901E1,3.1466652E1,2.938428E0,7.338756E0,3.109558E0,1.3194007E0,6.840998E0,9.067484E0,4.1439886E0,2.6221488E0,1.6753487E1,1.5325047E0,2.2964606E0,7.29971E1],"tree_param":{"num_deleted":"0","num_feature":"31","num_nodes":"29","size_leaf_vector":"1"}},{"base_weights":[3.2784396E-3,-3.210142E-3,2.558113E-1,-2.6186425E-2,6.445111E-2,4.553697E-1,-1.10385574E-1,-1.1946293E-2,-6.37065E-1,7.20379E-1,2.1143032E-3,2.0367968E-1,-2.1915312E-3,-6.59949E-2,1.4351873E-2,1.9674108E-3,-8.126814E-2,-2.775246E-1,3.38802E-2,6.181816E-2,2.374989E-1,-4.0825713E-1,1.8135497E-2],"categories":[],"categories_nodes":[],"categories_segments":[],"categories_sizes":[],"default_left":[0,0,0,0,0,0,0,0,0,0,0,0,0,0,0,0,0,0,0,0,0,0,0],"id":45,"left_children":[1,3,5,7,9,11,13,15,17,19,21,-1,-1,-1,-1,-1,-1,-1,-1,-1,-1,-1,-1],"loss_changes":[4.2287627E-1,3.9361742E-1,5.2269197E-1,1.6357278E0,2.6234179E0,4.5796394E-1,6.402421E-2,8.9123636E-1,1.0299286E0,4.1030884E-2,4.823493E0,0E0,0E0,0E0,0E0,0E0,0E0,0E0,0E0,0E0,0E0,0E0,0E0],"parents":[2147483647,0,0,1,1,2,2,3,3,4,4,5,5,6,6,7,7,8,8,9,9,10,10],"right_children":[2,4,6,8,10,12,14,16,18,20,22,-1,-1,-1,-1,-1,-1,-1,-1,-1,-1,-1,-1],"split_conditions":[2E0,1.39E2,2.2E1,2.3E1,1.51E2,6E-1,1.84E2,1.5E0,1.32E2,1.41E2,1.55E2,2.0367968E-1,-2.1915312E-3,-6.59949E-2,1.4351873E-2,1.9674108E-3,-8.126814E-2,-2.775246E-1,3.38802E-2,6.181816E-2,2.374989E-1,-4.0825713E-1,1.8135497E-2],"split_indices":[3,0,1,1,0,10,0,30,0,0,0,0,0,0,0,0,0,0,0,0,0,0,0],"split_type":[0,0,0,0,0,0,0,0,0,0,0,0,0,0,0,0,0,0,0,0,0,0,0],"sum_hessian":[2.5657367E2,2.5110896E2,5.464708E0,1.8791136E2,6.3197613E1,3.3795285E0,2.0851793E0,1.8462709E2,3.2842686E0,4.5686436E0,5.8628967E1,1.96341E0,1.4161185E0,1.001297E0,1.0838825E0,1.7322327E2,1.1403821E1,2.2043161E0,1.0799526E0,1.0297353E0,3.5389082E0,1.4899924E0,5.7138977E1],"tree_param":{"num_deleted":"0","num_feature":"31","num_nodes":"23","size_leaf_vector":"1"}},{"base_weights":[2.161228E-3,-1.8758692E-3,1.0427732E-1,5.28944E-3,-3.9587864E-1,-8.7441836E-4,4.1075858E-1,-1.969892E-1,1.0938564E-2,4.849897E-3,-3.4117363E-2,1.6571638E-1,3.5418945E-3],"categories":[],"categories_nodes":[],"categories_segments":[],"categories_sizes":[],"default_left":[0,0,0,0,0,0,0,0,0,0,0,0,0],"id":46,"left_children":[1,3,-1,5,7,9,11,-1,-1,-1,-1,-1,-1],"loss_changes":[3.5841462E-1,7.2080433E-1,0E0,6.277149E-1,5.380322E-1,4.792476E-1,2.0598131E-1,0E0,0E0,0E0,0E0,0E0,0E0],"parents":[2147483647,0,0,1,1,3,3,4,4,5,5,6,6],"right_children":[2,4,-1,6,8,10,12,-1,-1,-1,-1,-1,-1],"split_conditions":[1E0,3E0,1.0427732E-1,2E0,9.722222E-1,3.3E1,2.5E1,-1.969892E-1,1.0938564E-2,4.849897E-3,-3.4117363E-2,1.6571638E-1,3.5418945E-3],"split_indices":[10,18,0,3,15,1,1,0,0,0,0,0,0],"split_type":[0,0,0,0,0,0,0,0,0,0,0,0,0],"sum_hessian":[2.5554636E2,2.5357733E2,1.969032E0,2.500171E2,3.5602198E0,2.4725621E2,2.7608943E0,1.897203E0,1.6630169E0,2.1556233E2,3.1693882E1,1.7537214E0,1.007173E0],"tree_param":{"num_deleted":"0","num_feature":"31","num_nodes":"13","size_leaf_vector":"1"}},{"base_weights":[1.7574099E-3,-1.3081834E-1,1.36215435E-2,7.895999E-2,-6.988816E-1,6.1028795E-3,1.9575839E-1,-1.5879859E-1,2.1058875E-1,-4.254673E-3,-3.561381E-1,-4.420806E-4,1.8566023E-1,7.4669726E-2,-7.19495E-2,5.248385E-2,-5.0300164E-3],"categories":[],"categories_nodes":[],"categories_segments":[],"categories_sizes":[],"default_left":[0,0,0,0,0,0,0,0,0,0,0,0,0,0,0,0,0],"id":47,"left_children":[1,3,5,7,9,11,-1,13,-1,-1,-1,15,-1,-1,-1,-1,-1],"loss_changes":[4.045902E-1,2.5731342E0,1.1295221E0,2.5302696E0,1.9221098E0,9.396524E-1,0E0,4.7710043E-1,0E0,0E0,0E0,6.6933894E-1,0E0,0E0,0E0,0E0,0E0],"parents":[2147483647,0,0,1,1,2,2,3,3,4,4,5,5,7,7,11,11],"right_children":[2,4,6,8,10,12,-1,14,-1,-1,-1,16,-1,-1,-1,-1,-1],"split_conditions":[2.4E1,4E0,1E0,2.1E1,2.1E1,1E0,1.9575839E-1,2E0,2.1058875E-1,-4.254673E-3,-3.561381E-1,3E1,1.8566023E-1,7.4669726E-2,-7.19495E-2,5.248385E-2,-5.0300164E-3],"split_indices":[0,1,10,0,0,27,0,1,0,0,0,0,0,0,0,0,0],"split_type":[0,0,0,0,0,0,0,0,0,0,0,0,0,0,0,0,0],"sum_hessian":[2.550933E2,2.012953E1,2.3496378E2,1.53295355E1,4.799995E0,2.332287E2,1.7350882E0,1.1634521E1,3.6950142E0,2.4263742E0,2.3736207E0,2.3175261E2,1.4760796E0,1.5855658E0,1.0048955E1,1.8906693E1,2.1284592E2],"tree_param":{"num_deleted":"0","num_feature":"31","num_nodes":"17","size_leaf_vector":"1"}},{"base_weights":[2.7471853E-3,-4.414412E-3,2.069771E-1,2.8851978E-3,-2.686377E-1,5.16249E-1,-1.9666734E-1,-5.6477636E-3,4.449406E-1,5.906939E-1,3.6045443E-2,-1.3714267E-1,6.313518E-2,1.0032059E-3,-1.08697645E-1,2.2557743E-1,-4.0770255E-2,5.9604194E-2,2.04169E-1],"categories":[],"categories_nodes":[],"categories_segments":[],"categories_sizes":[],"default_left":[0,0,0,0,0,0,0,0,0,0,0,0,0,0,0,0,0,0,0],"id":48,"left_children":[1,3,5,7,-1,9,11,13,15,17,-1,-1,-1,-1,-1,-1,-1,-1,-1],"loss_changes":[3.7403467E-1,1.6120174E0,1.183039E0,9.3205166E-1,0E0,8.180153E-2,5.7154256E-1,7.7974945E-1,9.3653935E-1,9.438634E-3,0E0,0E0,0E0,0E0,0E0,0E0,0E0,0E0,0E0],"parents":[2147483647,0,0,1,1,2,2,3,3,5,5,6,6,7,7,8,8,9,9],"right_children":[2,4,6,8,-1,10,12,14,16,18,-1,-1,-1,-1,-1,-1,-1,-1,-1],"split_conditions":[4.51E2,7.6E1,8.8E1,3.28E2,-2.686377E-1,8.4E1,5.87E2,4.5E1,1E0,4.72E2,3.6045443E-2,-1.3714267E-1,6.313518E-2,1.0032059E-3,-1.08697645E-1,2.2557743E-1,-4.0770255E-2,5.9604194E-2,2.04169E-1],"split_indices":[0,1,1,0,0,1,0,1,19,0,0,0,0,0,0,0,0,0,0],"split_type":[0,0,0,0,0,0,0,0,0,0,0,0,0,0,0,0,0,0,0],"sum_hessian":[2.5410585E2,2.464424E2,7.6634502E0,2.4542856E2,1.0138366E0,4.1810017E0,3.4824486E0,2.4174931E2,3.6792445E0,3.105965E0,1.0750368E0,2.0487683E0,1.4336803E0,2.3677098E2,4.978331E0,2.2143698E0,1.4648746E0,1.1780492E0,1.9279157E0],"tree_param":{"num_deleted":"0","num_feature":"31","num_nodes":"19","size_leaf_vector":"1"}},{"base_weights":[2.489071E-3,-9.625074E-3,1.2622958E-1,4.2718225E-3,-3.5724154E-1,6.665151E-1,-1.6710742E-3,-1.6287573E-2,2.0540819E-1,-1.0469211E0,3.5862442E-2,6.462838E-2,2.3880428E-1,-2.4232388E-1,1.3171054E-1,6.033196E-4,-1.2273209E-1,1.0703246E-1,-3.4268703E-2,-7.575559E-2,-4.1323662E-1,1.4392298E-1,-7.2718024E-2,2.4727604E-1,5.733726E-3],"categories":[],"categories_nodes":[],"categories_segments":[],"categories_sizes":[],"default_left":[0,0,0,0,0,0,0,0,0,0,0,0,0,0,0,0,0,0,0,0,0,0,0,0,0],"id":49,"left_children":[1,3,5,7,9,11,13,15,17,19,21,-1,-1,-1,23,-1,-1,-1,-1,-1,-1,-1,-1,-1,-1],"loss_changes":[3.8283837E-1,1.1261896E0,1.5747269E0,9.331556E-1,2.4670947E0,8.328974E-2,2.1933348E0,1.4738344E0,1.0531752E0,5.15131E-1,9.407053E-1,0E0,0E0,0E0,1.3500153E0,0E0,0E0,0E0,0E0,0E0,0E0,0E0,0E0,0E0,0E0],"parents":[2147483647,0,0,1,1,2,2,3,3,4,4,5,5,6,6,7,7,8,8,9,9,10,10,14,14],"right_children":[2,4,6,8,10,12,14,16,18,20,22,-1,-1,-1,24,-1,-1,-1,-1,-1,-1,-1,-1,-1,-1],"split_conditions":[2.33E2,3.5E1,2.58E2,1.73E2,2.03E2,2.46E2,2.71E2,2.5E1,2.04E2,1.94E2,2.12E2,6.462838E-2,2.3880428E-1,-2.4232388E-1,2.83E2,6.033196E-4,-1.2273209E-1,1.0703246E-1,-3.4268703E-2,-7.575559E-2,-4.1323662E-1,1.4392298E-1,-7.2718024E-2,2.4727604E-1,5.733726E-3],"split_indices":[0,1,0,0,0,0,0,1,0,0,0,0,0,0,0,0,0,0,0,0,0,0,0,0,0],"split_type":[0,0,0,0,0,0,0,0,0,0,0,0,0,0,0,0,0,0,0,0,0,0,0,0,0],"sum_hessian":[2.5358354E2,2.3181151E2,2.1772038E1,2.238502E2,7.961299E0,3.3614032E0,1.8410633E1,2.039248E2,1.9925396E1,2.2865152E0,5.6747837E0,1.3438586E0,2.0175447E0,1.8960696E0,1.6514565E1,1.9579883E2,8.125983E0,1.3443117E1,6.48228E0,1.190133E0,1.0963823E0,1.907609E0,3.7671745E0,1.4256554E0,1.5088908E1],"tree_param":{"num_deleted":"0","num_feature":"31","num_nodes":"25","size_leaf_vector":"1"}},{"base_weights":[2.0036225E-3,-4.6598583E-2,3.2534525E-2,1.7240586E-3,-1.9888958E-1,3.314531E-1,-9.1216685E-3,-3.323751E-2,2.4062872E-1,1.905142E-1,-3.0499583E-1,9.098263E-2,5.8430785E-1,-2.0246455E-1,3.8428172E-2,3.19705E-3,-1.5757093E-1,-3.5836745E-2,-1.2086762E-1,-3.9261334E-2,5.9049446E-2,1.084082E-1,2.3667091E-1,1.4398092E-1,-8.475748E-2,9.84259E-2,-3.5558203E-3],"categories":[],"categories_nodes":[],"categories_segments":[],"categories_sizes":[],"default_left":[0,0,0,0,0,0,0,0,0,0,0,0,0,0,0,0,0,0,0,0,0,0,0,0,0,0,0],"id":50,"left_children":[1,3,5,7,9,11,13,15,-1,-1,17,19,21,23,25,-1,-1,-1,-1,-1,-1,-1,-1,-1,-1,-1,-1],"loss_changes":[3.783862E-1,7.2448003E-1,1.9527011E0,2.1446226E0,2.2917457E0,1.1129415E0,1.2801481E0,1.5925094E0,0E0,0E0,3.4620357E-1,2.8440484E-1,1.329217E-1,1.6368213E0,1.6339443E0,0E0,0E0,0E0,0E0,0E0,0E0,0E0,0E0,0E0,0E0,0E0,0E0],"parents":[2147483647,0,0,1,1,2,2,3,3,4,4,5,5,6,6,7,7,10,10,11,11,12,12,13,13,14,14],"right_children":[2,4,6,8,10,12,14,16,-1,-1,18,20,22,24,26,-1,-1,-1,-1,-1,-1,-1,-1,-1,-1,-1,-1],"split_conditions":[4.6E1,6E0,9E0,4.3E1,3E1,5.4E1,8.4E1,1E0,2.4062872E-1,1.905142E-1,3.9E1,6E0,6.7E1,4.9E1,1.6E1,3.19705E-3,-1.5757093E-1,-3.5836745E-2,-1.2086762E-1,-3.9261334E-2,5.9049446E-2,1.084082E-1,2.3667091E-1,1.4398092E-1,-8.475748E-2,9.84259E-2,-3.5558203E-3],"split_indices":[0,1,1,0,0,0,0,30,0,0,0,1,0,0,1,0,0,0,0,0,0,0,0,0,0,0,0],"split_type":[0,0,0,0,0,0,0,0,0,0,0,0,0,0,0,0,0,0,0,0,0,0,0,0,0,0,0],"sum_hessian":[2.52978E2,9.740018E1,1.5557782E2,7.468953E1,2.2710653E1,1.8178041E1,1.3739978E2,7.248187E1,2.2076566E0,2.0007603E0,2.0709894E1,1.0014167E1,8.163875E0,2.647827E1,1.109215E2,6.744318E1,5.0386934E0,7.9198503E0,1.2790043E1,3.1582472E0,6.8559194E0,5.230464E0,2.933411E0,2.255831E0,2.4222439E1,1.5589348E1,9.533215E1],"tree_param":{"num_deleted":"0","num_feature":"31","num_nodes":"27","size_leaf_vector":"1"}},{"base_weights":[4.6078204E-3,-6.147152E-2,2.6793623E-2,6.0543384E-2,-1.9247667E-1,3.2189196E-1,5.0835195E-3,1.5112016E-1,-4.2593533E-1,-4.7037104E-1,-6.1518982E-2,4.4993186E-1,-1.1528861E-1,-4.820592E-1,2.0966463E-2,-3.0959494E-2,9.994008E-2,-1.6975102E-1,-3.8844474E-2,-2.0526277E-3,-1.8712188E-1,6.1785948E-2,-3.703188E-2,4.4989537E-2,1.5052958E-1,-3.414746E-1,6.294109E-2,1.0275292E-1,-3.6784585E-4],"categories":[],"categories_nodes":[],"categories_segments":[],"categories_sizes":[],"default_left":[0,0,0,0,0,0,0,0,0,0,0,0,0,0,0,0,0,0,0,0,0,0,0,0,0,0,0,0,0],"id":51,"left_children":[1,3,5,7,9,11,13,15,17,19,21,23,-1,25,27,-1,-1,-1,-1,-1,-1,-1,-1,-1,-1,-1,-1,-1,-1],"loss_changes":[3.7191895E-1,1.0312741E0,1.2142183E0,1.553184E0,1.0992249E0,1.347391E0,1.3857293E0,1.3870701E0,1.5755343E-1,6.90928E-1,3.9344674E-1,1.0287762E-1,0E0,2.8063335E0,1.2359021E0,0E0,0E0,0E0,0E0,0E0,0E0,0E0,0E0,0E0,0E0,0E0,0E0,0E0,0E0],"parents":[2147483647,0,0,1,1,2,2,3,3,4,4,5,5,6,6,7,7,8,8,9,9,10,10,11,11,13,13,14,14],"right_children":[2,4,6,8,10,12,14,16,18,20,22,24,-1,26,28,-1,-1,-1,-1,-1,-1,-1,-1,-1,-1,-1,-1,-1,-1],"split_conditions":[3.6E1,4E0,3.9E1,3.2E1,2.8E1,1E0,4E0,2.1E1,3.4E1,2.1E1,3E1,4E0,-1.1528861E-1,4.1E1,6E0,-3.0959494E-2,9.994008E-2,-1.6975102E-1,-3.8844474E-2,-2.0526277E-3,-1.8712188E-1,6.1785948E-2,-3.703188E-2,4.4989537E-2,1.5052958E-1,-3.414746E-1,6.294109E-2,1.0275292E-1,-3.6784585E-4],"split_indices":[0,1,0,0,0,2,1,0,0,0,0,1,0,0,1,0,0,0,0,0,0,0,0,0,0,0,0,0,0],"split_type":[0,0,0,0,0,0,0,0,0,0,0,0,0,0,0,0,0,0,0,0,0,0,0,0,0,0,0,0,0],"sum_hessian":[2.5156888E2,6.2787773E1,1.887811E2,3.278785E1,2.9999924E1,1.1989187E1,1.7679192E2,2.8222502E1,4.5653477E0,8.778989E0,2.1220934E1,1.0456225E1,1.5329624E0,4.655428E0,1.7213649E2,1.1953491E1,1.626901E1,2.4842873E0,2.0810604E0,2.4422722E0,6.3367167E0,3.5519328E0,1.7669003E1,2.1142125E0,8.342012E0,2.0581784E0,2.5972495E0,1.0181777E1,1.6195471E2],"tree_param":{"num_deleted":"0","num_feature":"31","num_nodes":"29","size_leaf_vector":"1"}},{"base_weights":[2.4863952E-3,-1.9421902E-2,6.602751E-2,-8.797386E-3,-4.6719643E-1,1.8982221E-1,1.5633244E-2,-1.881912E-3,-3.0971E-1,-2.1539442E-1,3.767577E-2,-3.4599313E-1,5.9325896E-2,-5.9608524E-3,2.9553723E-2,-1.6304243E-1,4.5177564E-2,1.5923041E-1,-6.2994943E-3],"categories":[],"categories_nodes":[],"categories_segments":[],"categories_sizes":[],"default_left":[0,0,0,0,0,0,0,0,0,0,0,0,0,0,0,0,0,0,0],"id":52,"left_children":[1,3,5,7,9,-1,11,13,15,-1,-1,-1,17,-1,-1,-1,-1,-1,-1],"loss_changes":[3.507211E-1,8.8758415E-1,1.8346249E0,3.8253844E-1,7.3313254E-1,0E0,3.1500926E0,3.28778E-1,5.262356E-1,0E0,0E0,0E0,2.2496927E0,0E0,0E0,0E0,0E0,0E0,0E0],"parents":[2147483647,0,0,1,1,2,2,3,3,4,4,6,6,7,7,8,8,12,12],"right_children":[2,4,6,8,10,-1,12,14,16,-1,-1,-1,18,-1,-1,-1,-1,-1,-1],"split_conditions":[1.39E2,2.3E1,1.51E2,8.181818E-1,1.32E2,1.8982221E-1,1.53E2,1.03E2,1E0,-2.1539442E-1,3.767577E-2,-3.4599313E-1,2.6E1,-5.9608524E-3,2.9553723E-2,-1.6304243E-1,4.5177564E-2,1.5923041E-1,-6.2994943E-3],"split_indices":[0,1,0,15,0,0,0,0,30,0,0,0,1,0,0,0,0,0,0],"split_type":[0,0,0,0,0,0,0,0,0,0,0,0,0,0,0,0,0,0,0],"sum_hessian":[2.5001958E2,1.8643361E2,6.3585976E1,1.8310857E2,3.3250394E0,4.2488904E0,5.9337086E1,1.799786E2,3.129954E0,2.188119E0,1.1369203E0,1.2229364E0,5.8114147E1,1.5331189E2,2.6666723E1,1.9559375E0,1.1740166E0,7.6436872E0,5.0470463E1],"tree_param":{"num_deleted":"0","num_feature":"31","num_nodes":"19","size_leaf_vector":"1"}},{"base_weights":[1.244133E-3,-1.194288E-2,1.1120432E-1,-5.523488E-3,-1.8591666E-1,1.9312109E-1,-1.2340029E-2,5.671296E-3,-3.9841676E-1,-2.7174792E-1,1.3410081E-1,-8.124325E-4,2.1981038E-1,-2.6100227E-1,3.5073247E-2,3.328697E-3,-2.1892826E-1,1.157466E-1,-3.584095E-2],"categories":[],"categories_nodes":[],"categories_segments":[],"categories_sizes":[],"default_left":[0,0,0,0,0,0,0,0,0,0,0,0,0,0,0,0,0,0,0],"id":53,"left_children":[1,3,5,7,-1,-1,9,11,13,15,17,-1,-1,-1,-1,-1,-1,-1,-1],"loss_changes":[3.632709E-1,8.696787E-1,1.7728512E0,9.806826E-1,0E0,0E0,9.008753E-1,1.3256418E0,1.6028239E0,1.1145754E0,1.0172089E0,0E0,0E0,0E0,0E0,0E0,0E0,0E0,0E0],"parents":[2147483647,0,0,1,1,2,2,3,3,6,6,7,7,8,8,9,9,10,10],"right_children":[2,4,6,8,-1,-1,10,12,14,16,18,-1,-1,-1,-1,-1,-1,-1,-1],"split_conditions":[2.2E2,2.17E2,3.8E1,3.5E1,-1.8591666E-1,1.9312109E-1,4.9E1,3.4E1,2.03E2,4.5E1,7.6E1,-8.124325E-4,2.1981038E-1,-2.6100227E-1,3.5073247E-2,3.328697E-3,-2.1892826E-1,1.157466E-1,-3.584095E-2],"split_indices":[0,0,1,1,0,0,1,1,0,1,1,0,0,0,0,0,0,0,0],"split_type":[0,0,0,0,0,0,0,0,0,0,0,0,0,0,0,0,0,0,0],"sum_hessian":[2.4860774E2,2.2278194E2,2.5825811E1,2.2145204E2,1.3298982E0,4.070316E0,2.1755495E1,2.1627522E2,5.1768064E0,7.5411983E0,1.4214296E1,2.1479587E2,1.4793606E0,2.343731E0,2.8330755E0,5.26537E0,2.2758286E0,6.871429E0,7.3428674E0],"tree_param":{"num_deleted":"0","num_feature":"31","num_nodes":"19","size_leaf_vector":"1"}},{"base_weights":[9.5944584E-4,-4.868351E-3,2.5083056E-1,3.47567E-3,-5.126232E-1,2.048422E-1,-1.3448322E-1,-4.779021E-3,2.0374197E-1,-3.122123E-2,-2.1904078E-1,-1.0464649E-1,4.8207883E-2,5.1621295E-4,-2.05926E-1],"categories":[],"categories_nodes":[],"categories_segments":[],"categories_sizes":[],"default_left":[0,0,0,0,0,0,0,0,0,0,0,0,0,0,0],"id":54,"left_children":[1,3,5,7,9,-1,11,13,-1,-1,-1,-1,-1,-1,-1],"loss_changes":[3.6327782E-1,1.0353106E0,1.0382009E0,1.3473709E0,2.7509677E-1,0E0,2.9904145E-1,1.0604177E0,0E0,0E0,0E0,0E0,0E0,0E0,0E0],"parents":[2147483647,0,0,1,1,2,2,3,3,4,4,6,6,7,7],"right_children":[2,4,6,8,10,-1,12,14,-1,-1,-1,-1,-1,-1,-1],"split_conditions":[5.08E2,7.6E1,8.9E1,3.91E2,1E0,2.048422E-1,5.87E2,6E1,2.0374197E-1,-3.122123E-2,-2.1904078E-1,-1.0464649E-1,4.8207883E-2,5.1621295E-4,-2.05926E-1],"split_indices":[0,1,1,0,19,0,0,1,0,0,0,0,0,0,0],"split_type":[0,0,0,0,0,0,0,0,0,0,0,0,0,0,0],"sum_hessian":[2.4763148E2,2.4294572E2,4.6857576E0,2.3999501E2,2.950724E0,1.8451134E0,2.8406444E0,2.3807928E2,1.9157233E0,1.5388232E0,1.4119006E0,1.5403781E0,1.3002663E0,2.3681859E2,1.2606883E0],"tree_param":{"num_deleted":"0","num_feature":"31","num_nodes":"15","size_leaf_vector":"1"}},{"base_weights":[6.9748977E-4,5.6141578E-3,-2.4853171E-1,2.092207E-3,1.10119276E-1,-1.8673414E-1,1.3376492E-1,-4.4272435E-3,1.899052E-1,-4.4058785E-2,1.037251E-1,3.18185E-4,-1.9098341E-1,1.5843906E-1,-1.6850172E-2],"categories":[],"categories_nodes":[],"categories_segments":[],"categories_sizes":[],"default_left":[0,0,0,0,0,0,0,0,0,0,0,0,0,0,0],"id":55,"left_children":[1,3,5,7,-1,-1,9,11,13,-1,-1,-1,-1,-1,-1],"loss_changes":[3.0568E-1,3.1047413E-1,7.7312726E-1,2.9854998E-1,0E0,0E0,2.417008E-1,8.193001E-1,7.104349E-1,0E0,0E0,0E0,0E0,0E0,0E0],"parents":[2147483647,0,0,1,1,2,2,3,3,6,6,7,7,8,8],"right_children":[2,4,6,8,-1,-1,10,12,14,-1,-1,-1,-1,-1,-1],"split_conditions":[3E0,9.230769E-1,1E0,4.51E2,1.10119276E-1,-1.8673414E-1,9.583333E-1,7.3E1,8.4E1,-4.4058785E-2,1.037251E-1,3.18185E-4,-1.9098341E-1,1.5843906E-1,-1.6850172E-2],"split_indices":[18,15,30,0,0,0,15,1,1,0,0,0,0,0,0],"split_type":[0,0,0,0,0,0,0,0,0,0,0,0,0,0,0],"sum_hessian":[2.4731923E2,2.434932E2,3.826037E0,2.4213959E2,1.353607E0,1.6166503E0,2.2093866E0,2.3495998E2,7.179611E0,1.0829607E0,1.1264259E0,2.3392763E2,1.0323553E0,2.540909E0,4.638702E0],"tree_param":{"num_deleted":"0","num_feature":"31","num_nodes":"15","size_leaf_vector":"1"}},{"base_weights":[2.3201051E-4,-9.642253E-3,1.0524818E-1,3.952302E-3,-2.4642509E-1,5.764053E-1,3.5392453E-3,-1.2483772E-2,4.3196058E-1,2.2064605E-1,-4.253575E-1,4.1459348E-2,2.1504702E-1,-1.7039478E-1,1.1077969E-1,-2.9725625E-4,-2.107528E-1,4.625857E-2,2.2216499E-1,-2.5865766E-1,-5.6329582E-2,2.346449E-1,9.980387E-4],"categories":[],"categories_nodes":[],"categories_segments":[],"categories_sizes":[],"default_left":[0,0,0,0,0,0,0,0,0,0,0,0,0,0,0,0,0,0,0,0,0,0,0],"id":56,"left_children":[1,3,5,7,9,11,13,15,17,-1,19,-1,-1,-1,21,-1,-1,-1,-1,-1,-1,-1,-1],"loss_changes":[2.577713E-1,7.324538E-1,1.021761E0,1.5241097E0,2.4834146E0,1.339556E-1,1.2015381E0,1.6557696E0,5.725497E-1,0E0,9.884448E-1,0E0,0E0,0E0,1.1862124E0,0E0,0E0,0E0,0E0,0E0,0E0,0E0,0E0],"parents":[2147483647,0,0,1,1,2,2,3,3,4,4,5,5,6,6,7,7,8,8,10,10,14,14],"right_children":[2,4,6,8,10,12,14,16,18,-1,20,-1,-1,-1,22,-1,-1,-1,-1,-1,-1,-1,-1],"split_conditions":[2.33E2,3.3E1,2.58E2,1.95E2,1.92E2,2.46E2,2.71E2,1.88E2,1E0,2.2064605E-1,2.06E2,4.1459348E-2,2.1504702E-1,-1.7039478E-1,2.83E2,-2.9725625E-4,-2.107528E-1,4.625857E-2,2.2216499E-1,-2.5865766E-1,-5.6329582E-2,2.346449E-1,9.980387E-4],"split_indices":[0,1,0,0,0,0,0,0,30,0,0,0,0,0,0,0,0,0,0,0,0,0,0],"split_type":[0,0,0,0,0,0,0,0,0,0,0,0,0,0,0,0,0,0,0,0,0,0,0],"sum_hessian":[2.4660562E2,2.2624123E2,2.03644E1,2.1488708E2,1.1354133E1,2.7869434E0,1.7577457E1,2.0787524E2,7.011847E0,1.2706853E0,1.0083447E1,1.1578355E0,1.6291081E0,2.0983374E0,1.547912E1,2.0545467E2,2.4205732E0,4.479483E0,2.5323641E0,2.6261537E0,7.4572935E0,1.2693254E0,1.4209795E1],"tree_param":{"num_deleted":"0","num_feature":"31","num_nodes":"23","size_leaf_vector":"1"}},{"base_weights":[2.1030994E-3,-1.2099488E-3,9.294661E-2,3.1643985E-3,-2.4314803E-1,-1.7149137E-2,5.357452E-2,-1.7285834E-1,9.327144E-2,3.0826952E-3,-1.3657765E-1,1.7980973E-1,4.744528E-3,-2.0319533E-2,6.286355E-2],"categories":[],"categories_nodes":[],"categories_segments":[],"categories_sizes":[],"default_left":[0,0,0,0,0,0,0,0,0,0,0,0,0,0,0],"id":57,"left_children":[1,3,-1,5,7,9,11,-1,13,-1,-1,-1,-1,-1,-1],"loss_changes":[2.5269917E-1,2.6096922E-1,0E0,2.492219E-1,5.4439974E-1,2.0904047E0,1.4308481E0,0E0,7.1088664E-2,0E0,0E0,0E0,0E0,0E0,0E0],"parents":[2147483647,0,0,1,1,3,3,4,4,5,5,6,6,8,8],"right_children":[2,4,-1,6,8,10,12,-1,14,-1,-1,-1,-1,-1,-1],"split_conditions":[1E0,3E0,9.294661E-2,1.23E2,1E0,1.13E2,1.8E1,-1.7285834E-1,7.5E-1,3.0826952E-3,-1.3657765E-1,1.7980973E-1,4.744528E-3,-2.0319533E-2,6.286355E-2],"split_indices":[27,18,0,0,30,0,1,0,16,0,0,0,0,0,0],"split_type":[0,0,0,0,0,0,0,0,0,0,0,0,0,0,0],"sum_hessian":[2.465011E2,2.4486087E2,1.6402205E0,2.4148169E2,3.3791752E0,1.7259264E2,6.888906E1,1.3399417E0,2.0392334E0,1.6334416E2,9.248471E0,3.4951634E0,6.53939E1,1.0302018E0,1.0090315E0],"tree_param":{"num_deleted":"0","num_feature":"31","num_nodes":"15","size_leaf_vector":"1"}},{"base_weights":[1.8885224E-3,-2.7586163E-3,2.1278235E-1,3.6439185E-3,-1.5614462E-1,-1.5377581E-1,1.9880769E-1,-3.4743217E-3,1.5847093E-1,7.042168E-2,-1.3369493E-1,9.556189E-4,-1.778884E-1],"categories":[],"categories_nodes":[],"categories_segments":[],"categories_sizes":[],"default_left":[0,0,0,0,0,0,0,0,0,0,0,0,0],"id":58,"left_children":[1,3,5,7,-1,9,-1,11,-1,-1,-1,-1,-1],"loss_changes":[2.426975E-1,8.063818E-1,9.8240876E-1,9.0075386E-1,0E0,5.3027064E-1,0E0,9.3818927E-1,0E0,0E0,0E0,0E0,0E0],"parents":[2147483647,0,0,1,1,2,2,3,3,5,5,7,7],"right_children":[2,4,6,8,-1,10,-1,12,-1,-1,-1,-1,-1],"split_conditions":[5.08E2,8E1,1E0,3.91E2,-1.5614462E-1,9.5E1,1.9880769E-1,6E1,1.5847093E-1,7.042168E-2,-1.3369493E-1,9.556189E-4,-1.778884E-1],"split_indices":[0,1,19,0,0,1,0,1,0,0,0,0,0],"split_type":[0,0,0,0,0,0,0,0,0,0,0,0,0],"sum_hessian":[2.460382E2,2.4169916E2,4.3390284E0,2.397275E2,1.9716783E0,2.7536974E0,1.5853312E0,2.3749823E2,2.2292569E0,1.2652584E0,1.4884388E0,2.3582855E2,1.6696723E0],"tree_param":{"num_deleted":"0","num_feature":"31","num_nodes":"13","size_leaf_vector":"1"}},{"base_weights":[1.4981793E-3,-2.2466026E-2,4.1934006E-2,-5.3821034E-3,-4.0155476E-1,4.1951355E-1,-9.020512E-3,-3.6745097E-2,4.805881E-1,2.2684486E-1,-3.2966042E-1,5.771349E-1,-1.2941894E-1,-4.162034E-1,3.8846247E-2,-4.0398506E-3,-1.6098663E-1,6.385884E-2,2.2973186E-1,1.4801894E-1,-5.19724E-2,1.10282786E-1,2.5543326E-1,1.3347965E-1,-1.8334562E-4],"categories":[],"categories_nodes":[],"categories_segments":[],"categories_sizes":[],"default_left":[0,0,0,0,0,0,0,0,0,0,0,0,0,0,0,0,0,0,0,0,0,0,0,0,0],"id":59,"left_children":[1,3,5,7,9,11,13,15,17,19,-1,21,-1,-1,23,-1,-1,-1,-1,-1,-1,-1,-1,-1,-1],"loss_changes":[2.4007164E-1,1.0055449E0,1.7772334E0,2.3023918E0,3.1834893E0,1.7218184E0,5.4768915E0,1.6421866E0,5.3627753E-1,5.4948616E-1,0E0,2.4409842E-1,0E0,0E0,1.2886997E0,0E0,0E0,0E0,0E0,0E0,0E0,0E0,0E0,0E0,0E0],"parents":[2147483647,0,0,1,1,2,2,3,3,4,4,5,5,6,6,7,7,8,8,9,9,11,11,14,14],"right_children":[2,4,6,8,10,12,14,16,18,20,-1,22,-1,-1,24,-1,-1,-1,-1,-1,-1,-1,-1,-1,-1],"split_conditions":[1.03E2,9.5E1,1.13E2,1.4E1,1.7E1,1E0,1.15E2,1.3E1,8.8E1,1E0,-3.2966042E-1,1.1E2,-1.2941894E-1,-4.162034E-1,1.8E1,-4.0398506E-3,-1.6098663E-1,6.385884E-2,2.2973186E-1,1.4801894E-1,-5.19724E-2,1.10282786E-1,2.5543326E-1,1.3347965E-1,-1.8334562E-4],"split_indices":[0,0,0,1,1,19,0,1,0,30,0,0,0,0,1,0,0,0,0,0,0,0,0,0,0],"split_type":[0,0,0,0,0,0,0,0,0,0,0,0,0,0,0,0,0,0,0,0,0,0,0,0,0],"sum_hessian":[2.4577654E2,1.5459848E2,9.1178055E1,1.4890228E2,5.696198E0,9.981412E0,8.119665E1,1.4074353E2,8.158758E0,3.3510294E0,2.3451686E0,8.692896E0,1.2885159E0,1.7859758E0,7.941067E1,1.354621E2,5.2814374E0,5.1089697E0,3.0497882E0,1.8711665E0,1.4798629E0,6.2551503E0,2.4377456E0,6.1225553E0,7.328812E1],"tree_param":{"num_deleted":"0","num_feature":"31","num_nodes":"25","size_leaf_vector":"1"}},{"base_weights":[1.6596677E-3,8.769533E-2,-1.6094783E-3,-5.5735666E-2,1.6413283E-2,2.4679199E-2,-1.3665085E-1,9.358352E-3,1.7214799E-1,2.9746197E-2,-9.571833E-2,-1.5610206E-1,-1.54897105E-2,7.243842E-2,-2.380671E-3],"categories":[],"categories_nodes":[],"categories_segments":[],"categories_sizes":[],"default_left":[0,0,0,0,0,0,0,0,0,0,0,0,0,0,0],"id":60,"left_children":[1,-1,3,5,7,9,11,13,-1,-1,-1,-1,-1,-1,-1],"loss_changes":[2.3415829E-1,0E0,2.3912649E-1,4.017626E-1,7.1808136E-1,8.3945435E-1,9.7365844E-1,7.3520464E-1,0E0,0E0,0E0,0E0,0E0,0E0,0E0],"parents":[2147483647,0,0,2,2,3,3,4,4,5,5,6,6,7,7],"right_children":[2,-1,4,6,8,10,12,14,-1,-1,-1,-1,-1,-1,-1],"split_conditions":[2E0,8.769533E-2,3.6E1,4E0,1E0,3.2E1,2.4E1,3.9E1,1.7214799E-1,2.9746197E-2,-9.571833E-2,-1.5610206E-1,-1.54897105E-2,7.243842E-2,-2.380671E-3],"split_indices":[1,0,0,1,10,0,0,0,0,0,0,0,0,0,0],"split_type":[0,0,0,0,0,0,0,0,0,0,0,0,0,0,0],"sum_hessian":[2.4493445E2,1.7408319E0,2.4319362E2,6.0226902E1,1.8296672E2,3.0555416E1,2.9671486E1,1.81684E2,1.2827042E0,2.569901E1,4.856405E0,4.453314E0,2.5218172E1,1.1699668E1,1.6998434E2],"tree_param":{"num_deleted":"0","num_feature":"31","num_nodes":"15","size_leaf_vector":"1"}},{"base_weights":[1.6859167E-3,-1.4450516E-2,5.5773556E-2,-7.2749035E-4,-3.8109872E-1,4.9063292E-1,-1.3310297E-2,-1.2984901E-2,1.8535167E-1,2.4822055E-1,-1.4304158E-1,-4.0507615E-2,1.7895721E-1,-1.4997368E-3,-1.808963E-1,-1.2427869E-1,4.5467086E-2,-2.5305226E-3,-1.23938315E-1],"categories":[],"categories_nodes":[],"categories_segments":[],"categories_sizes":[],"default_left":[0,0,0,0,0,0,0,0,0,0,0,0,0,0,0,0,0,0,0],"id":61,"left_children":[1,3,5,7,-1,9,11,13,-1,-1,15,17,-1,-1,-1,-1,-1,-1,-1],"loss_changes":[2.1456993E-1,3.2639248E0,1.7034487E0,1.4364021E0,0E0,1.7764406E0,8.487384E-1,8.719786E-1,0E0,0E0,3.4634727E-1,5.764838E-1,0E0,0E0,0E0,0E0,0E0,0E0,0E0],"parents":[2147483647,0,0,1,1,2,2,3,3,5,5,6,6,7,7,10,10,11,11],"right_children":[2,4,6,8,-1,10,12,14,-1,-1,16,18,-1,-1,-1,-1,-1,-1,-1],"split_conditions":[1.52E2,1.51E2,2.6E1,1.41E2,-3.8109872E-1,1E0,1E0,2.5E1,1.8535167E-1,2.4822055E-1,1.67E2,2.5E0,1.7895721E-1,-1.4997368E-3,-1.808963E-1,-1.2427869E-1,4.5467086E-2,-2.5305226E-3,-1.23938315E-1],"split_indices":[0,0,1,0,0,19,22,1,0,0,0,30,0,0,0,0,0,0,0],"split_type":[0,0,0,0,0,0,0,0,0,0,0,0,0,0,0,0,0,0,0],"sum_hessian":[2.4392268E2,1.8843736E2,5.5485317E1,1.8739032E2,1.0470408E0,6.769791E0,4.8715523E1,1.8470917E2,2.6811588E0,4.2208714E0,2.5489197E0,4.752939E1,1.1861341E0,1.8323749E2,1.4716747E0,1.1156288E0,1.4332907E0,4.47042E1,2.825189E0],"tree_param":{"num_deleted":"0","num_feature":"31","num_nodes":"19","size_leaf_vector":"1"}},{"base_weights":[1.5078948E-3,-1.120377E-2,7.356297E-2,1.7128163E-3,-3.1267774E-1,5.8265805E-1,4.04573E-3,-5.3054267E-3,1.9497009E-1,2.1157667E-2,2.1838583E-1,1.7411733E-1,-3.1890795E-2,1.6870673E-3,-8.859311E-2,-1.32249E-1,1.0456595E-2],"categories":[],"categories_nodes":[],"categories_segments":[],"categories_sizes":[],"default_left":[0,0,0,0,0,0,0,0,0,0,0,0,0,0,0,0,0],"id":62,"left_children":[1,3,5,7,-1,9,11,13,-1,-1,-1,-1,15,-1,-1,-1,-1],"loss_changes":[2.24559E-1,2.778599E0,1.2987082E0,9.44773E-1,0E0,2.7679884E-1,7.0930874E-1,6.536163E-1,0E0,0E0,0E0,0E0,8.9817643E-1,0E0,0E0,0E0,0E0],"parents":[2147483647,0,0,1,1,2,2,3,3,5,5,6,6,7,7,12,12],"right_children":[2,4,6,8,-1,10,12,14,-1,-1,-1,-1,16,-1,-1,-1,-1],"split_conditions":[1.95E2,1.93E2,3E1,3.3E1,-3.1267774E-1,2E2,1.98E2,2.9E1,1.9497009E-1,2.1157667E-2,2.1838583E-1,1.7411733E-1,2.1E2,1.6870673E-3,-8.859311E-2,-1.32249E-1,1.0456595E-2],"split_indices":[0,0,1,1,0,0,0,1,0,0,0,0,0,0,0,0,0],"split_type":[0,0,0,0,0,0,0,0,0,0,0,0,0,0,0,0,0],"sum_hessian":[2.43268E2,2.0750528E2,3.576273E1,2.0592389E2,1.5813808E0,3.4098573E0,3.235287E1,2.0469933E2,1.2245649E0,1.0818754E0,2.3279817E0,1.0096579E0,3.1343212E1,1.9821028E2,6.489048E0,3.611534E0,2.7731678E1],"tree_param":{"num_deleted":"0","num_feature":"31","num_nodes":"17","size_leaf_vector":"1"}},{"base_weights":[1.8970356E-3,5.6456933E-3,-2.1513988E-1,-1.3369438E-2,6.533488E-2,4.2239886E-2,-1.6394383E-1,-6.907238E-3,-1.7678666E-1,1.8065536E-1,2.6201608E-2,-5.0109363E-4,-1.2707007E-1,-2.8320575E-1,1.9952422E-2],"categories":[],"categories_nodes":[],"categories_segments":[],"categories_sizes":[],"default_left":[0,0,0,0,0,0,0,0,0,0,0,0,0,0,0],"id":63,"left_children":[1,3,5,7,9,-1,-1,11,-1,-1,13,-1,-1,-1,-1],"loss_changes":[1.9980405E-1,2.7431524E-1,5.6872606E-1,6.790193E-1,1.2106297E0,0E0,0E0,3.9754808E-1,0E0,0E0,2.2314386E0,0E0,0E0,0E0,0E0],"parents":[2147483647,0,0,1,1,2,2,3,3,4,4,7,7,10,10],"right_children":[2,4,6,8,10,-1,-1,12,-1,-1,14,-1,-1,-1,-1],"split_conditions":[3E0,1.39E2,2.1E1,2.5E1,1.51E2,4.2239886E-2,-1.6394383E-1,8.181818E-1,-1.7678666E-1,1.8065536E-1,1.52E2,-5.0109363E-4,-1.2707007E-1,-2.8320575E-1,1.9952422E-2],"split_indices":[18,0,1,1,0,0,0,15,0,0,0,0,0,0,0],"split_type":[0,0,0,0,0,0,0,0,0,0,0,0,0,0,0],"sum_hessian":[2.4308817E2,2.3991829E2,3.1698768E0,1.8254204E2,5.737624E1,1.8054463E0,1.3644305E0,1.8151729E2,1.0247518E0,2.9206922E0,5.4455547E1,1.8025569E2,1.2615952E0,1.2777466E0,5.3177803E1],"tree_param":{"num_deleted":"0","num_feature":"31","num_nodes":"15","size_leaf_vector":"1"}},{"base_weights":[-5.2164454E-4,2.1775418E-3,-9.470838E-2,-3.5157683E-3,1.3652737E-1,2.466009E-3,-2.9345423E-1,-1.7159616E-3,1.2708268E-1,-1.7131925E-1,-3.8909235E-3],"categories":[],"categories_nodes":[],"categories_segments":[],"categories_sizes":[],"default_left":[0,0,0,0,0,0,0,0,0,0,0],"id":64,"left_children":[1,3,-1,5,-1,7,9,-1,-1,-1,-1],"loss_changes":[2.0739457E-1,6.2538797E-1,0E0,4.1679493E-1,0E0,8.161639E-1,3.7084144E-1,0E0,0E0,0E0,0E0],"parents":[2147483647,0,0,1,1,3,3,5,5,6,6],"right_children":[2,4,-1,6,-1,8,10,-1,-1,-1,-1],"split_conditions":[1.03E2,5.34E2,-9.470838E-2,7.6E1,1.3652737E-1,3.28E2,4.67E2,-1.7159616E-3,1.2708268E-1,-1.7131925E-1,-3.8909235E-3],"split_indices":[1,0,0,1,0,0,0,0,0,0,0],"split_type":[0,0,0,0,0,0,0,0,0,0,0],"sum_hessian":[2.4198174E2,2.4091162E2,1.0701108E0,2.3890077E2,2.0108433E0,2.3504305E2,3.8577247E0,2.3152917E2,3.5138838E0,1.4181334E0,2.4395912E0],"tree_param":{"num_deleted":"0","num_feature":"31","num_nodes":"11","size_leaf_vector":"1"}},{"base_weights":[-2.3956166E-4,2.554085E-3,-1.00212485E-1,-2.5811219E-3,1.2633578E-1,1.5135772E-3,-1.0080675E-1,-8.891087E-4,1.5732962E-1],"categories":[],"categories_nodes":[],"categories_segments":[],"categories_sizes":[],"default_left":[0,0,0,0,0,0,0,0,0],"id":65,"left_children":[1,3,-1,5,-1,7,-1,-1,-1],"loss_changes":[2.2712818E-1,5.2044284E-1,0E0,3.277696E-1,0E0,5.5825496E-1,0E0,0E0,0E0],"parents":[2147483647,0,0,1,1,3,3,5,5],"right_children":[2,4,-1,6,-1,8,-1,-1,-1],"split_conditions":[1.04E2,5.34E2,-1.00212485E-1,8.3E1,1.2633578E-1,4.67E2,-1.0080675E-1,-8.891087E-4,1.5732962E-1],"split_indices":[1,0,0,1,0,0,0,0,0],"split_type":[0,0,0,0,0,0,0,0,0],"sum_hessian":[2.4164766E2,2.4062616E2,1.0214932E0,2.3869159E2,1.934577E0,2.3677937E2,1.9122175E0,2.3575514E2,1.0242231E0],"tree_param":{"num_deleted":"0","num_feature":"31","num_nodes":"9","size_leaf_vector":"1"}},{"base_weights":[2.9844095E-4,-2.4644635E-3,7.945219E-2,9.913325E-4,-2.1343125E-1,-1.5662266E-3,8.578393E-2,-1.5635763E-1,2.6962975E-2,3.5455483E-3,-2.0054288E-2],"categories":[],"categories_nodes":[],"categories_segments":[],"categories_sizes":[],"default_left":[0,0,0,0,0,0,0,0,0,0,0],"id":66,"left_children":[1,3,-1,5,7,9,-1,-1,-1,-1,-1],"loss_changes":[1.7794855E-1,1.7595391E-1,0E0,1.7401949E-1,4.0992546E-1,2.079095E-1,0E0,0E0,0E0,0E0,0E0],"parents":[2147483647,0,0,1,1,3,3,4,4,5,5],"right_children":[2,4,-1,6,8,10,-1,-1,-1,-1,-1],"split_conditions":[1E0,3E0,7.945219E-2,9.230769E-1,1E0,1.81E2,8.578393E-2,-1.5635763E-1,2.6962975E-2,3.5455483E-3,-2.0054288E-2],"split_indices":[27,18,0,15,30,0,0,0,0,0,0],"split_type":[0,0,0,0,0,0,0,0,0,0,0],"sum_hessian":[2.4157039E2,2.4005392E2,1.5164627E0,2.3716429E2,2.8896298E0,2.3604025E2,1.1240299E0,1.0777235E0,1.8119062E0,1.9655858E2,3.9481674E1],"tree_param":{"num_deleted":"0","num_feature":"31","num_nodes":"11","size_leaf_vector":"1"}},{"base_weights":[2.808086E-4,7.467499E-2,-2.3981202E-3,-4.7320947E-2,2.7097957E-3,-3.0686401E-3,1.7557657E-1,-2.3421587E-3,1.5975404E-1],"categories":[],"categories_nodes":[],"categories_segments":[],"categories_sizes":[],"default_left":[0,0,0,0,0,0,0,0,0],"id":67,"left_children":[1,-1,3,-1,5,7,-1,-1,-1],"loss_changes":[1.6215536E-1,0E0,1.91616E-1,0E0,7.903926E-1,5.9539056E-1,0E0,0E0,0E0],"parents":[2147483647,0,0,2,2,4,4,5,5],"right_children":[2,-1,4,-1,6,8,-1,-1,-1],"split_conditions":[2E0,7.467499E-2,1.7E1,-4.7320947E-2,1E0,1E0,1.7557657E-1,-2.3421587E-3,1.5975404E-1],"split_indices":[1,0,0,0,10,27,0,0,0],"split_type":[0,0,0,0,0,0,0,0,0],"sum_hessian":[2.41552E2,1.5950633E0,2.3995694E2,6.687916E0,2.3326901E2,2.3196284E2,1.3061738E0,2.3090533E2,1.057509E0],"tree_param":{"num_deleted":"0","num_feature":"31","num_nodes":"9","size_leaf_vector":"1"}},{"base_weights":[1.8393432E-3,4.2197523E-3,-8.2587704E-2,-9.953168E-4,3.2972834E-1,4.0636095E-3,-3.085211E-1,1.6577402E-1,9.005494E-3,-2.1320042E-4,1.6055728E-1,2.3679467E-2,-1.7900193E-1],"categories":[],"categories_nodes":[],"categories_segments":[],"categories_sizes":[],"default_left":[0,0,0,0,0,0,0,0,0,0,0,0,0],"id":68,"left_children":[1,3,-1,5,7,9,11,-1,-1,-1,-1,-1,-1],"loss_changes":[1.6110078E-1,4.100611E-1,0E0,3.723907E-1,2.3782215E-1,5.980167E-1,4.7959524E-1,0E0,0E0,0E0,0E0,0E0,0E0],"parents":[2147483647,0,0,1,1,3,3,4,4,5,5,6,6],"right_children":[2,4,-1,6,8,10,12,-1,-1,-1,-1,-1,-1],"split_conditions":[1.04E2,5.08E2,-8.2587704E-2,7.6E1,8.9E1,3.91E2,1E0,1.6577402E-1,9.005494E-3,-2.1320042E-4,1.6055728E-1,2.3679467E-2,-1.7900193E-1],"split_indices":[1,0,0,1,1,0,19,0,0,0,0,0,0],"split_type":[0,0,0,0,0,0,0,0,0,0,0,0,0],"sum_hessian":[2.414471E2,2.4036725E2,1.0798492E0,2.375582E2,2.8090475E0,2.3468433E2,2.873868E0,1.1271962E0,1.6818514E0,2.3358333E2,1.1010071E0,1.5354115E0,1.3384565E0],"tree_param":{"num_deleted":"0","num_feature":"31","num_nodes":"13","size_leaf_vector":"1"}},{"base_weights":[1.8386295E-3,4.406009E-3,-9.1653794E-2,-4.8128393E-5,